%YAML:1.0
---
opencv_ml_svm:
   format: 3
   svmType: C_SVC
   kernel:
      type: LINEAR
   C: 1.0000000000000000e-02
   term_criteria: { epsilon:1.1920928955078125e-07, iterations:1000 }
   var_count: 256
   class_count: 37
   class_labels: !!opencv-matrix
      rows: 37
      cols: 1
      dt: i
      data: [ 45, 48, 49, 50, 51, 52, 53, 54, 55, 56, 57, 65, 66, 67, 68,
          69, 70, 71, 72, 73, 74, 75, 76, 77, 78, 79, 80, 81, 82, 83, 84,
          85, 86, 87, 88, 89, 90 ]
   sv_total: 666
   support_vectors:
      - [ 9.51046022e-05, 9.51046022e-05, 6.94701230e-05, 3.67403882e-05,
          1.72895943e-05, 0., 0., 3.27297348e-05, 6.02372529e-05,
          7.56538066e-05, 9.51046022e-05, 9.51046022e-05, 9.51046022e-05,
          9.51046022e-05, 9.51046022e-05, 9.51046022e-05, 9.51046022e-05,
          6.28326234e-05, 2.19001522e-05, 0., 0., 0., 0., 0.,
          3.79939593e-05, 5.83642141e-05, 6.21102954e-05, 9.51046022e-05,
          9.51046022e-05, 9.51046022e-05, 9.51046022e-05, 9.51046022e-05,
          9.00692539e-05, 2.20442325e-05, 0., 1.80814623e-05,
          5.83642141e-05, 5.83642141e-05, 1.80814623e-05, 0., 0.,
          5.33288694e-05, 5.83642141e-05, 6.23984524e-05, 9.51046022e-05,
          9.51046022e-05, 9.51046022e-05, 9.51046022e-05, 6.87834836e-05,
          0., 9.15517091e-07, 5.83642141e-05, 5.83642141e-05,
          5.83642141e-05, 8.38663618e-05, 9.15517091e-07, 0.,
          3.20430991e-05, 5.83642141e-05, 5.83642141e-05, 6.23984524e-05,
          9.51046022e-05, 8.87345595e-05, 8.16567335e-05,
          -3.09221141e-05, -4.99834605e-05, -3.53351861e-05,
          8.38075357e-06, 3.20098661e-05, 4.51211417e-05, 4.51211417e-05,
          1.40520058e-06, -1.41075525e-05, -4.79235459e-05,
          8.38075357e-06, 8.38075357e-06, 8.38075357e-06, 4.51211417e-05,
          2.40646077e-05, 0., -9.51046022e-05, -9.51046022e-05,
          -8.04563242e-05, -3.67403882e-05, -1.00855971e-06, 0., 0.,
          -4.37159397e-05, -5.83642141e-05, -6.96024508e-05,
          -3.67403882e-05, -3.67403882e-05, -3.67403882e-05,
          -1.97389527e-05, 0., 0., -9.51046022e-05, -9.51046022e-05,
          -8.04563242e-05, -3.67403882e-05, 0., 0., 0., -4.37159397e-05,
          -5.83642141e-05, -6.49918875e-05, -3.67403882e-05,
          -3.67403882e-05, -3.67403882e-05, -1.97389527e-05, 0., 0.,
          -9.51046022e-05, -9.51046022e-05, -8.04563242e-05,
          -1.00855968e-05, 0., 0., 0., -4.37159397e-05, -5.83642141e-05,
          -5.83642141e-05, -3.67403882e-05, -3.67403882e-05,
          -3.67403882e-05, -3.67403882e-05, 0., 0., -9.51046022e-05,
          -9.51046022e-05, -8.04563242e-05, -3.67403882e-05, 0., 0., 0.,
          -4.37159397e-05, -5.83642141e-05, -5.83642141e-05,
          -3.67403882e-05, -3.67403882e-05, -3.67403882e-05,
          -3.61640668e-05, 0., 0., -9.51046022e-05, -9.51046022e-05,
          -8.04563242e-05, -3.67403882e-05, 0., 0., 0., -4.37159397e-05,
          -5.83642141e-05, -6.49918875e-05, -3.67403882e-05,
          -3.67403882e-05, -3.67403882e-05, -1.97389527e-05, 0., 0.,
          -9.23670814e-05, -9.51046022e-05, -8.04563242e-05,
          -3.67403882e-05, -6.62767752e-06, 0., 0., -4.37159397e-05,
          -5.83642141e-05, -6.96024508e-05, -3.67403882e-05,
          -3.67403882e-05, -3.67403882e-05, -1.97389527e-05, 0., 0.,
          -4.60600677e-05, -9.51046022e-05, -8.13718434e-05,
          -3.67403882e-05, -3.67403882e-05, -8.64479716e-07, 0.,
          -4.46314589e-05, -6.94583723e-05, -6.30615032e-05,
          -3.67403882e-05, -3.67403882e-05, -3.67403882e-05, 0., 0., 0.,
          -2.63211150e-05, -9.10703602e-05, -9.51046022e-05,
          -3.67403882e-05, -3.67403882e-05, -3.67403882e-05,
          -3.67403882e-05, -9.51046022e-05, -9.51046022e-05,
          -6.30615032e-05, -3.67403882e-05, -3.67403882e-05,
          -2.23323932e-05, 0., 0., 0., 0., -7.30603715e-05,
          -9.51046022e-05, -9.35024436e-05, -8.18296030e-05,
          -8.18296030e-05, -9.35024436e-05, -9.51046022e-05,
          -9.51046022e-05, -3.67403882e-05, -3.67403882e-05,
          -3.27061498e-05, 0., 0., 0., 0., 0., -6.40861936e-06,
          -7.32044500e-05, -9.13585245e-05, -9.51046022e-05,
          -9.51046022e-05, -9.51046022e-05, -9.51046022e-05,
          -4.31490080e-05, -3.67403882e-05, -3.29943105e-05, 0., 0., 0.,
          0., 0., 0., 0., -6.40861936e-06, -2.56344774e-05,
          -4.32295055e-05, -4.66874262e-05, -6.17985424e-05,
          -2.58594137e-05, -1.94507938e-05, -1.59928750e-05, 0., 0., 0.,
          0., 0., 0. ]
      - [ 1.00025209e-04, 1.00025209e-04, 1.00025209e-04, 7.33950947e-05,
          2.60136094e-05, 8.71660268e-06, 5.06996439e-05, 7.40116011e-05,
          1.00025209e-04, 1.00025209e-04, 1.00025209e-04, 1.00025209e-04,
          1.00025209e-04, 1.00025209e-04, 1.00025209e-04, 1.00025209e-04,
          9.36237411e-05, 3.47302121e-05, 3.47302121e-05, 2.60136094e-05,
          -1.35525272e-20, -1.35525272e-20, 5.06996439e-05,
          6.52949966e-05, 1.00025209e-04, 1.00025209e-04, 1.00025209e-04,
          1.00025209e-04, 1.00025209e-04, 1.00025209e-04, 1.00025209e-04,
          1.00025209e-04, 7.18587398e-05, 3.47302121e-05, 2.60136094e-05,
          -1.35525272e-20, -1.35525272e-20, -1.35525272e-20,
          5.06996439e-05, 6.52949966e-05, 1.00025209e-04, 1.00025209e-04,
          1.00025209e-04, 1.00025209e-04, 1.00025209e-04, 1.00025209e-04,
          1.00025209e-04, 1.00025209e-04, 1.00025209e-04, 8.10662532e-05,
          5.50526420e-05, 4.89072336e-05, -1.35525272e-20,
          -1.35525272e-20, 5.06996439e-05, 6.52949966e-05,
          1.00025209e-04, 1.00025209e-04, 1.00025209e-04, 1.00025209e-04,
          1.00025209e-04, 1.00025209e-04, 9.56273361e-05, 9.07408030e-05,
          2.24350151e-05, -3.57859449e-06, -3.57859449e-06,
          -1.10043002e-05, -6.88735890e-05, -6.88735890e-05,
          -1.81739470e-05, -3.57859449e-06, 3.11516196e-05,
          3.11516196e-05, 3.11516196e-05, 3.11516196e-05, 3.11516196e-05,
          3.11516196e-05, 1.66141963e-05, 0., -3.47302121e-05,
          -3.47302121e-05, -3.47302121e-05, -4.21559198e-05,
          -1.00025209e-04, -1.00025209e-04, -4.93255648e-05,
          -3.47302121e-05, 0., 0., 0., 0., 0., 0., 0., 0.,
          -8.71660268e-06, -3.47302121e-05, -3.47302121e-05,
          -1.61423086e-05, -1.00025209e-04, -1.00025209e-04,
          -4.93255648e-05, -3.47302121e-05, 0., 0., 0., 0., 0., 0., 0.,
          0., 0., -8.71660268e-06, -2.60136094e-05, -7.42570546e-06,
          -1.00025209e-04, -1.00025209e-04, -4.93255648e-05,
          -3.47302121e-05, 0., 0., 0., 0., 0., 0., 0., 0., 0., 0., 0.,
          -7.42570546e-06, -1.00025209e-04, -1.00025209e-04,
          -4.93255648e-05, -3.47302121e-05, 0., 0., 0., 0., 0., 0., 0.,
          0., 0., 0., 0., -7.42570546e-06, -1.00025209e-04,
          -1.00025209e-04, -4.93255648e-05, -3.47302121e-05, 0., 0., 0.,
          0., 0., 0., 0., 0., 0., 0., 0., -7.42570546e-06,
          -1.00025209e-04, -1.00025209e-04, -4.93255648e-05,
          -3.47302121e-05, 0., 0., 0., 0., 0., 0., 0., 0., 0., 0., 0.,
          -7.42570546e-06, -1.00025209e-04, -1.00025209e-04,
          -4.93255648e-05, -3.47302121e-05, 0., 0., 0., 0., 0., 0., 0.,
          0., 0., 0., 0., -7.42570546e-06, -1.00025209e-04,
          -1.00025209e-04, -4.93255648e-05, -3.47302121e-05, 0., 0., 0.,
          0., 0., 0., 0., 0., 0., 0., 0., -7.16964678e-06,
          -1.00025209e-04, -1.00025209e-04, -4.93255648e-05,
          -3.47302121e-05, 0., 0., 0., 0., 0., 0., 0., 0.,
          -6.52949966e-05, -6.52949966e-05, -6.52949966e-05,
          -6.52949966e-05, -1.00025209e-04, -1.00025209e-04,
          -1.00025209e-04, -1.00025209e-04, -6.52949966e-05, 0., 0., 0.,
          0., 0., 0., 0., -6.52949966e-05, -6.52949966e-05,
          -6.52949966e-05, -6.52949966e-05, -1.00025209e-04,
          -1.00025209e-04, -1.00025209e-04, -1.00025209e-04,
          -6.52949966e-05, 0., 0., 0., 0., 0., 0., 0. ]
      - [ 9.82272686e-05, 8.93753313e-05, 6.35571778e-05, 1.78326791e-05,
          0., 0., 3.17194463e-05, 5.63081630e-05, 7.16175709e-05,
          8.93109318e-05, 9.82272686e-05, 9.82272686e-05, 9.82272686e-05,
          9.82272686e-05, 9.82272686e-05, 9.82272686e-05, 6.25736284e-05,
          2.66097013e-05, 0., 0., 0., 0., 0., 0., 5.77834871e-05,
          6.27012269e-05, 8.93109318e-05, 9.82272686e-05, 9.82272686e-05,
          9.82272686e-05, 9.82272686e-05, 9.82272686e-05, 3.65095875e-05,
          0., 1.72121017e-05, 6.27012269e-05, 6.27012269e-05,
          6.27012269e-05, 2.45887179e-07, 0., 0., 6.27012269e-05,
          6.27012269e-05, 8.93109318e-05, 9.82272686e-05, 9.82272686e-05,
          9.82272686e-05, 9.82272686e-05, 7.61079427e-05, 1.84415385e-05,
          6.27012269e-05, 6.27012269e-05, 7.16175709e-05, 8.05339077e-05,
          2.71763911e-05, 8.91633954e-06, 0., 6.27012269e-05,
          6.27012269e-05, 8.05339077e-05, 9.82272686e-05, 9.82272686e-05,
          9.39553502e-05, 8.92087774e-05, 1.25660526e-05, 3.64971265e-06,
          -5.26662689e-06, -5.26662689e-06, 3.02594144e-05,
          3.02594144e-05, 3.02594144e-05, -3.24418179e-05,
          -6.79678560e-05, -2.37081658e-05, -5.26662689e-06,
          3.64971265e-06, 3.02594144e-05, 3.02594144e-05, 1.61383541e-05,
          0., 0., 0., 0., 0., 0., 0., -2.50804915e-05, -6.27012269e-05,
          -9.82272686e-05, -3.55260418e-05, -3.55260418e-05,
          -2.66097013e-05, 0., 0., 0., 0., 0., 0., 0., 0., 0., 0.,
          -5.33575185e-05, -8.93109318e-05, -9.82272686e-05,
          -3.55260418e-05, -3.55260418e-05, -1.76933609e-05, 0., 0., 0.,
          0., 0., 0., 0., 0., 0., -5.65540495e-06, -8.93109318e-05,
          -9.82272686e-05, -5.74099977e-05, -3.55260418e-05,
          -3.55260418e-05, -8.91633954e-06, 0., 0., 0., 0., 0., 0., 0.,
          0., 0., -8.61143999e-05, -9.82272686e-05, -9.82272686e-05,
          -3.74931369e-05, -3.55260418e-05, -1.76933609e-05, 0., 0., 0.,
          0., 0., 0., 0., 0., 0., -7.25906066e-05, -9.82272686e-05,
          -9.82272686e-05, -5.12628212e-05, -3.55260418e-05,
          -8.91633954e-06, 0., 0., 0., 0., 0., 0., 0., 0.,
          -8.91633954e-06, -6.42304367e-05, -9.82272686e-05,
          -9.82272686e-05, -6.99502489e-05, -3.55260418e-05,
          -8.91633954e-06, 0., 0., 0., 0., 0., 0., 0., 0.,
          -8.91633954e-06, -6.72454844e-05, -9.82272686e-05,
          -9.82272686e-05, -7.78186368e-05, -2.66097013e-05, 0., 0., 0.,
          0., 0., 0., 0., 0., 0., -8.91633954e-06, -6.38030688e-05,
          -9.82272686e-05, -9.82272686e-05, -8.59329084e-05,
          -2.66097013e-05, -1.76933609e-05, -1.76933609e-05,
          -1.76933609e-05, -1.76933609e-05, -1.76933609e-05,
          -1.76933609e-05, 0., 0., 0., 0., -4.49868385e-05,
          -9.82272686e-05, -9.82272686e-05, -9.82272686e-05,
          -3.55260418e-05, -3.55260418e-05, -3.55260418e-05,
          -3.55260418e-05, -3.55260418e-05, -3.55260418e-05,
          -3.55260418e-05, -3.55260418e-05, 0., 0., 0., 0.,
          -8.03945950e-05, -9.82272686e-05, -9.82272686e-05,
          -9.82272686e-05, -9.82272686e-05, -9.82272686e-05,
          -9.82272686e-05, -9.82272686e-05, -9.82272686e-05,
          -9.82272686e-05, -3.55260418e-05, -3.55260418e-05, 0., 0., 0.,
          0., -8.03945950e-05, -9.82272686e-05, -9.82272686e-05,
          -9.82272686e-05, -9.82272686e-05, -9.82272686e-05,
          -9.82272686e-05, -9.82272686e-05, -9.82272686e-05,
          -9.82272686e-05, -3.55260418e-05, -3.55260418e-05, 0., 0., 0.,
          0. ]
      - [ 9.70232431e-05, 9.70232431e-05, 6.73094910e-05, 1.38218293e-05,
          1.35525272e-20, 1.35525272e-20, 1.35525272e-20, 5.17599292e-05,
          9.70232431e-05, 9.70232431e-05, 9.70232431e-05, 9.70232431e-05,
          9.70232431e-05, 9.70232431e-05, 9.70232431e-05, 9.70232431e-05,
          8.64111862e-05, 1.58951043e-05, 1.35525272e-20, 1.35525272e-20,
          1.35525272e-20, 1.35525272e-20, 1.35525272e-20, 1.35525272e-20,
          2.33465234e-05, 8.35469618e-05, 9.70232431e-05, 9.70232431e-05,
          9.70232431e-05, 9.70232431e-05, 9.70232431e-05, 9.70232431e-05,
          8.56202387e-05, 6.36723371e-06, 6.36723371e-06, 4.00605131e-05,
          6.76518612e-05, 6.76518612e-05, 6.36723371e-06, 1.35525272e-20,
          1.35525272e-20, 6.12846270e-05, 9.70232431e-05, 9.70232431e-05,
          9.70232431e-05, 9.70232431e-05, 9.70232431e-05, 9.70232431e-05,
          7.09921296e-05, 6.76518612e-05, 6.76518612e-05, 6.76518612e-05,
          8.87301503e-05, 8.87301503e-05, 4.24962418e-05, 1.35525272e-20,
          1.35525272e-20, 3.36932790e-05, 7.96307795e-05, 9.70232431e-05,
          9.70232431e-05, 9.70232431e-05, 9.32673429e-05, 8.90941083e-05,
          2.01541461e-05, 2.41613202e-06, -2.76705418e-06,
          2.10756025e-05, 2.66043335e-05, 2.66043335e-05, 2.66043335e-05,
          -7.04189151e-05, -7.04189151e-05, -3.67256325e-05,
          9.21186529e-06, 2.66043335e-05, 2.66043335e-05, 2.66043335e-05,
          1.41889777e-05, 0., 0., 0., 0., 0., 0., 0., -3.39585786e-05,
          -9.70232431e-05, -9.70232431e-05, -2.93713874e-05,
          -1.73924691e-05, 0., 0., 0., 0., 0., 0., 0., 0.,
          -4.64277437e-05, -7.30347674e-05, -8.36468244e-05,
          -9.61017868e-05, -9.70232431e-05, -3.99834425e-05,
          -2.93713874e-05, 0., 0., 0., 0., 0., 0., 0., 0., 0.,
          -6.76518612e-05, -9.70232431e-05, -9.70232431e-05,
          -9.70232431e-05, -6.33299642e-05, -2.81043867e-05,
          -6.91091486e-07, 0., 0., 0., 0., 0., 0., 0., 0., 0.,
          -3.79381017e-05, -6.73094910e-05, -9.70232431e-05,
          -9.70232431e-05, -9.70232431e-05, -7.79215479e-05,
          -2.93713874e-05, 0., 0., 0., 0., 0., 0., 0., 0., 0., 0., 0.,
          0., -4.15452669e-05, -9.70232431e-05, -9.70232431e-05,
          -6.33299642e-05, -1.84291057e-05, 0., 0., 0., 0., 0., 0., 0.,
          -4.37691278e-06, 0., 0., 0., 0., -8.66246482e-05,
          -9.70232431e-05, -6.94319024e-05, -2.93713874e-05, 0., 0., 0.,
          0., 0., -1.99264705e-05, -2.93713874e-05, -2.93713874e-05,
          -5.52873189e-06, 0., 0., 0., -6.20771680e-05, -9.70232431e-05,
          -9.70232431e-05, -2.93713874e-05, 0., 0., 0., 0., 0.,
          -2.93713874e-05, -9.27784204e-05, -2.93713874e-05,
          -2.93713874e-05, -8.29309738e-06, -8.29309738e-06,
          -2.26908378e-05, -9.70232431e-05, -9.70232431e-05,
          -6.51870796e-05, -2.60311117e-05, 0., 0., 0., 0., 0.,
          -7.26876315e-05, -9.70232431e-05, -9.06560090e-05,
          -8.42887748e-05, -8.42887748e-05, -8.42887748e-05,
          -9.06560090e-05, -9.70232431e-05, -9.70232431e-05,
          -3.57386234e-05, -1.14030090e-05, 0., 0., 0., 0., 0.,
          -1.06120560e-05, -8.11281425e-05, -9.70232431e-05,
          -9.70232431e-05, -9.70232431e-05, -9.70232431e-05,
          -9.70232431e-05, -9.70232431e-05, -7.36767252e-05,
          -1.34762840e-05, 0., 0., 0., 0., 0., 0., 0., 0.,
          -2.97137576e-05, -4.52633140e-05, -6.85918130e-05,
          -7.79215479e-05, -5.90851450e-05, -3.04064361e-05, 0., 0., 0.,
          0., 0., 0., 0., 0. ]
      - [ 7.76653469e-05, 7.76653469e-05, 7.76653469e-05, 7.76653469e-05,
          7.76653469e-05, 5.64296461e-05, 2.55970426e-05, 2.55970426e-05,
          6.42435589e-06, 5.20683061e-05, 5.20683061e-05, 7.12409892e-05,
          7.76653469e-05, 7.76653469e-05, 7.76653469e-05, 7.76653469e-05,
          7.76653469e-05, 7.76653469e-05, 7.76653469e-05, 7.76653469e-05,
          7.66443991e-05, 2.55970426e-05, 2.55970426e-05, 6.42435589e-06,
          -1.01643954e-20, 5.20683061e-05, 5.20683061e-05,
          6.49170179e-05, 7.76653469e-05, 7.76653469e-05, 7.76653469e-05,
          7.76653469e-05, 7.76653469e-05, 7.76653469e-05, 7.76653469e-05,
          7.76653469e-05, 7.15396673e-05, 2.55970426e-05, 6.42435589e-06,
          -1.01643954e-20, -1.01643954e-20, 5.20683061e-05,
          5.20683061e-05, 6.49170179e-05, 7.76653469e-05, 7.76653469e-05,
          7.76653469e-05, 7.76653469e-05, 7.76653469e-05, 7.76653469e-05,
          7.76653469e-05, 6.97019641e-05, 2.55970426e-05, 1.28487118e-05,
          4.00211284e-05, -1.01643954e-20, -1.01643954e-20,
          5.20683061e-05, 5.20683061e-05, 6.49170179e-05, 7.76653469e-05,
          7.76653469e-05, 7.32269109e-05, 6.82953178e-05, 3.14389072e-05,
          3.14389072e-05, 3.14389072e-05, -5.92775723e-06,
          -2.70537530e-05, -4.62264397e-05, 5.84186546e-06,
          -4.62264397e-05, -4.62264397e-05, 5.84186546e-06,
          5.84186546e-06, 1.86905781e-05, 3.14389072e-05, 3.14389072e-05,
          1.67674189e-05, 0., 0., 0., -1.42932604e-05, -5.84926602e-05,
          -7.76653469e-05, -2.55970426e-05, -7.29689928e-05,
          -7.76653469e-05, -7.76653469e-05, -2.55970426e-05,
          -2.55970426e-05, -1.27483318e-05, 0., 0., 0., 0., 0.,
          -5.30892521e-06, -5.20683061e-05, -7.76653469e-05,
          -5.96966784e-05, -2.55970426e-05, -6.65446350e-05,
          -6.48166388e-05, -7.76653469e-05, -2.55970426e-05,
          -2.55970426e-05, -1.27483318e-05, 0., 0., 0., 0., 0.,
          -2.20524580e-05, -7.12409892e-05, -7.68485916e-05,
          -2.55970426e-05, -2.55970426e-05, -5.37963024e-05,
          -6.48166388e-05, -7.76653469e-05, -2.55970426e-05,
          -2.55970426e-05, -1.27483318e-05, 0., 0., 0., 0.,
          -2.14398897e-05, -7.12409892e-05, -7.76653469e-05,
          -2.96808321e-05, -2.55970426e-05, -6.42435589e-06,
          -4.73719483e-05, -6.48166388e-05, -7.76653469e-05,
          -2.55970426e-05, -2.55970426e-05, -1.27483318e-05, 0., 0., 0.,
          0., -5.68532487e-05, -7.76653469e-05, -6.74558760e-05,
          -2.55970426e-05, -1.27483318e-05, 0., -4.73719483e-05,
          -6.48166388e-05, -7.76653469e-05, -2.55970426e-05,
          -2.55970426e-05, -1.27483318e-05, 0., 0., 0., 0.,
          -7.76653469e-05, -7.76653469e-05, -7.76653469e-05,
          -7.76653469e-05, -7.76653469e-05, -7.76653469e-05,
          -7.76653469e-05, -7.76653469e-05, -7.76653469e-05,
          -7.76653469e-05, -7.76653469e-05, -2.55970426e-05,
          -2.55970426e-05, 0., 0., 0., -7.76653469e-05, -7.76653469e-05,
          -7.76653469e-05, -7.76653469e-05, -7.76653469e-05,
          -7.76653469e-05, -7.76653469e-05, -7.76653469e-05,
          -7.76653469e-05, -7.76653469e-05, -6.78642537e-05,
          -2.55970426e-05, -2.55970426e-05, 0., 0., 0., -2.55970426e-05,
          -2.55970426e-05, -2.55970426e-05, -2.55970426e-05,
          -2.55970426e-05, -2.55970426e-05, -7.29689928e-05,
          -7.76653469e-05, -7.76653469e-05, -2.55970426e-05,
          -2.55970426e-05, -2.55970426e-05, -2.55970426e-05, 0., 0., 0.,
          0., 0., 0., 0., 0., 0., -4.73719483e-05, -6.48166388e-05,
          -7.76653469e-05, -2.55970426e-05, -2.55970426e-05,
          -1.27483318e-05, 0., 0., 0., 0., 0., 0., 0., 0., 0., 0.,
          -4.73719483e-05, -6.48166388e-05, -7.76653469e-05,
          -2.55970426e-05, -2.55970426e-05, -1.27483318e-05, 0., 0., 0.,
          0., 0., 0., 0., 0., 0., 0., -4.73719483e-05, -6.48166388e-05,
          -7.76653469e-05, -2.55970426e-05, -2.55970426e-05,
          -1.27483318e-05, 0., 0., 0., 0. ]
      - [ 9.35786229e-05, 4.44761463e-05, -6.77626358e-21,
          -6.77626358e-21, -6.77626358e-21, -6.77626358e-21,
          -6.77626358e-21, -6.77626358e-21, -6.77626358e-21,
          7.76060406e-05, 9.35786229e-05, 9.35786229e-05, 9.35786229e-05,
          9.35786229e-05, 9.35786229e-05, 9.35786229e-05, 9.35786229e-05,
          4.44761463e-05, -6.77626358e-21, -6.77626358e-21,
          -6.77626358e-21, -6.77626358e-21, -6.77626358e-21,
          -6.77626358e-21, -6.77626358e-21, 7.76060406e-05,
          9.35786229e-05, 9.35786229e-05, 9.35786229e-05, 9.35786229e-05,
          9.35786229e-05, 9.35786229e-05, 9.35786229e-05, 3.86508509e-05,
          -6.77626358e-21, -6.77626358e-21, 1.46081957e-05,
          1.46081957e-05, 1.46081957e-05, 1.46081957e-05, 1.46081957e-05,
          7.76060406e-05, 9.35786229e-05, 9.35786229e-05, 9.35786229e-05,
          9.35786229e-05, 9.35786229e-05, 9.35786229e-05, 9.35786229e-05,
          3.86508509e-05, -6.77626358e-21, 3.86508509e-05,
          8.56236511e-05, 8.56236511e-05, 8.56236511e-05, 8.56236511e-05,
          8.56236511e-05, 8.56236511e-05, 9.35786229e-05, 9.35786229e-05,
          9.35786229e-05, 9.35786229e-05, 9.11800889e-05, 8.85150439e-05,
          1.69896430e-05, -3.79381308e-05, -7.65889854e-05,
          -3.79381308e-05, 1.69896430e-05, 1.69896430e-05,
          1.69896430e-05, 1.69896430e-05, 1.69896430e-05, 1.69896430e-05,
          1.69896430e-05, 1.69896430e-05, 1.69896430e-05, 1.69896430e-05,
          9.06114292e-06, 0., -8.70662552e-06, -5.49277756e-05,
          -9.35786229e-05, -5.49277756e-05, -7.95497454e-06,
          -1.59725860e-05, -7.95497454e-06, -7.95497454e-06, 0., 0., 0.,
          0., 0., 0., 0., 0., -8.70662552e-06, -8.14051309e-05,
          -9.35786229e-05, -9.35786229e-05, -9.35786229e-05,
          -9.35786229e-05, -9.35786229e-05, -8.14051309e-05,
          -4.05619612e-05, -5.07364484e-06, 0., 0., 0., 0., 0., 0.,
          -8.70662552e-06, -7.16663344e-05, -9.35786229e-05,
          -9.35786229e-05, -7.16663344e-05, -9.35786229e-05,
          -9.35786229e-05, -9.35786229e-05, -9.35786229e-05,
          -1.59725860e-05, 0., 0., 0., 0., 0., 0., -4.38463167e-06,
          -7.95497454e-06, -5.94928351e-05, -1.59725860e-05,
          -7.51651100e-07, 0., -3.06189177e-05, -9.35786229e-05,
          -9.35786229e-05, -5.49277756e-05, -8.70662552e-06, 0., 0., 0.,
          0., 0., 0., 0., 0., 0., 0., 0., 0., -8.14051309e-05,
          -9.35786229e-05, -9.35786229e-05, -1.59725860e-05, 0., 0., 0.,
          0., 0., 0., 0., 0., 0., 0., 0., 0., -5.49277756e-05,
          -9.35786229e-05, -9.35786229e-05, -1.59725860e-05, 0., 0., 0.,
          0., 0., -7.95497454e-06, -7.95497454e-06, -1.59725860e-05,
          -2.88132924e-06, 0., 0., -7.51651100e-07, -9.35786229e-05,
          -9.35786229e-05, -9.11439274e-05, -1.59725860e-05, 0., 0., 0.,
          0., 0., -1.59725860e-05, -8.87092247e-05, -1.59725860e-05,
          -1.59725860e-05, -7.95497454e-06, -7.95497454e-06,
          -1.59725860e-05, -9.35786229e-05, -9.35786229e-05,
          -5.49277756e-05, -8.70662552e-06, 0., 0., 0., 0., 0.,
          -7.90085687e-05, -9.35786229e-05, -8.62745292e-05,
          -7.89704281e-05, -7.89704281e-05, -7.89704281e-05,
          -9.35786229e-05, -9.35786229e-05, -9.35786229e-05,
          -2.32766834e-05, 0., 0., 0., 0., 0., 0., -1.21734965e-05,
          -8.55610124e-05, -9.35786229e-05, -9.35786229e-05,
          -9.35786229e-05, -9.35786229e-05, -9.35786229e-05,
          -9.35786229e-05, -2.59537665e-05, -5.07364484e-06, 0., 0., 0.,
          0., 0., 0., 0., 0., -3.40857914e-05, -4.20407632e-05,
          -6.36487239e-05, -7.16663344e-05, -4.20407632e-05,
          -7.95497454e-06, 0., 0., 0., 0., 0., 0., 0., 0. ]
      - [ 8.06967510e-05, 8.06967510e-05, 8.06967510e-05, 5.03705451e-05,
          1.16504816e-05, 2.92404252e-06, -5.08219768e-21,
          -5.08219768e-21, 3.87200635e-05, 7.77727109e-05,
          8.06967510e-05, 8.06967510e-05, 8.06967510e-05, 8.06967510e-05,
          8.06967510e-05, 8.06967510e-05, 8.06967510e-05, 7.31152031e-05,
          1.16504816e-05, 1.16504816e-05, 2.92404252e-06,
          -5.08219768e-21, -5.08219768e-21, -5.08219768e-21,
          5.84808504e-06, 4.95582390e-05, 8.06967510e-05, 8.06967510e-05,
          8.06967510e-05, 8.06967510e-05, 8.06967510e-05, 8.06967510e-05,
          8.06967510e-05, 4.82043906e-05, 1.16504816e-05, 8.72643977e-06,
          1.57046416e-05, 6.90462693e-05, 6.90462693e-05, 3.00010106e-05,
          1.16504816e-05, 5.55151710e-05, 8.06967510e-05, 8.06967510e-05,
          8.06967510e-05, 8.06967510e-05, 8.06967510e-05, 8.06967510e-05,
          7.88013640e-05, 1.16504816e-05, 8.72643977e-06, 1.40800239e-05,
          6.90462693e-05, 6.90462693e-05, 6.90462693e-05, 8.06967510e-05,
          8.06967510e-05, 8.06967510e-05, 8.06967510e-05, 8.06967510e-05,
          8.06967510e-05, 8.06967510e-05, 7.82320931e-05, 7.54935827e-05,
          -1.36805229e-05, -5.15882784e-05, -6.03147164e-05,
          5.80750884e-06, 5.80750884e-06, 5.80750884e-06, 1.45339482e-05,
          1.74579909e-05, 1.74579909e-05, 1.74579909e-05, 1.74579909e-05,
          1.74579909e-05, 1.74579909e-05, 1.74579909e-05, 9.31092836e-06,
          0., -6.20062565e-05, -7.48486636e-05, -6.33674936e-05,
          -1.16504816e-05, -1.16504816e-05, -1.16504816e-05,
          -1.16504816e-05, -1.16504816e-05, -8.72643977e-06,
          -2.92404252e-06, 0., 0., 0., 0., 0., 0., -7.19703094e-05,
          -8.06967510e-05, -6.33674936e-05, -1.86904945e-05,
          -5.90351774e-05, -7.96136737e-05, -8.06967510e-05,
          -5.90351774e-05, -2.84382022e-05, -1.16504816e-05,
          -5.80239703e-06, 0., 0., 0., 0., 0., -7.48486636e-05,
          -8.06967510e-05, -7.31152031e-05, -8.06967510e-05,
          -8.06967510e-05, -8.06967510e-05, -8.06967510e-05,
          -8.06967510e-05, -8.06967510e-05, -2.92505119e-05,
          -1.16504816e-05, -2.92404252e-06, 0., 0., 0., 0.,
          -8.06967510e-05, -8.06967510e-05, -8.06967510e-05,
          -5.03705451e-05, -8.72643977e-06, 0., -3.30339026e-05,
          -7.48486636e-05, -8.06967510e-05, -5.93059449e-05,
          -1.16504816e-05, -8.72643977e-06, 0., 0., 0., 0.,
          -8.06967510e-05, -8.06967510e-05, -6.33674936e-05,
          -8.72643977e-06, 0., 0., 0., -5.17170083e-05, -7.48486636e-05,
          -8.06967510e-05, -1.16504816e-05, -1.16504816e-05, 0., 0., 0.,
          0., -7.36567381e-05, -8.06967510e-05, -6.33674936e-05,
          -5.80239703e-06, 0., 0., 0., 0., -7.48486636e-05,
          -8.06967510e-05, -1.16504816e-05, -1.16504816e-05, 0., 0., 0.,
          0., -4.27889936e-05, -8.06967510e-05, -6.44505708e-05,
          -1.16504816e-05, 0., 0., 0., -5.17170083e-05, -7.77727109e-05,
          -8.06967510e-05, -1.16504816e-05, -1.16504816e-05, 0., 0., 0.,
          0., -3.98649536e-05, -8.06967510e-05, -8.06967510e-05,
          -1.16504816e-05, -1.16504816e-05, -5.80239703e-06,
          -5.80239703e-06, -6.04434499e-05, -8.06967510e-05,
          -8.06967510e-05, -1.16504816e-05, -8.72643977e-06, 0., 0., 0.,
          0., -2.92404252e-06, -4.41428419e-05, -8.06967510e-05,
          -7.88013640e-05, -6.49921058e-05, -1.16504816e-05,
          -6.76998025e-05, -8.06967510e-05, -8.06967510e-05,
          -4.27889936e-05, -1.16504816e-05, -2.92404252e-06, 0., 0., 0.,
          0., 0., -1.05055933e-05, -8.06967510e-05, -8.06967510e-05,
          -8.06967510e-05, -8.06967510e-05, -8.06967510e-05,
          -8.06967510e-05, -4.98290065e-05, -1.16504816e-05,
          -2.92404252e-06, 0., 0., 0., 0., 0., 0., 0., 0.,
          -3.61286002e-05, -3.90526438e-05, -7.88013640e-05,
          -4.19766875e-05, -3.90526438e-05, -5.80239703e-06, 0., 0., 0.,
          0., 0., 0., 0. ]
      - [ 2.03694781e-05, 2.71050543e-20, 2.71050543e-20, 2.71050543e-20,
          2.71050543e-20, 2.71050543e-20, 2.71050543e-20, 2.71050543e-20,
          2.71050543e-20, 2.71050543e-20, 7.47092490e-05, 7.47092490e-05,
          1.55868882e-04, 1.55868882e-04, 1.55868882e-04, 1.55868882e-04,
          2.71050543e-20, 2.71050543e-20, 2.71050543e-20, 2.71050543e-20,
          2.71050543e-20, 2.71050543e-20, 2.71050543e-20, 2.71050543e-20,
          2.71050543e-20, 2.71050543e-20, 7.47092490e-05, 7.47092490e-05,
          1.55868882e-04, 1.55868882e-04, 1.55868882e-04, 1.55868882e-04,
          2.34381969e-06, 2.34381969e-06, 2.34381969e-06, 2.34381969e-06,
          2.34381969e-06, 2.34381969e-06, 2.34381969e-06, 2.71050543e-20,
          2.71050543e-20, 4.10168432e-05, 7.47092490e-05, 7.47092490e-05,
          1.55868882e-04, 1.55868882e-04, 1.55868882e-04, 1.55868882e-04,
          9.50787289e-05, 7.47092490e-05, 7.47092490e-05, 7.47092490e-05,
          7.47092490e-05, 7.47092490e-05, 2.10943763e-05, 2.71050543e-20,
          2.71050543e-20, 6.94356568e-05, 7.47092490e-05, 9.50787289e-05,
          1.55868882e-04, 1.55868882e-04, 1.50528969e-04, 1.44595731e-04,
          3.78243822e-05, 3.78243822e-05, 3.78243822e-05, 3.78243822e-05,
          3.78243822e-05, 3.78243822e-05, -3.30761613e-05,
          -9.76750307e-05, -6.94102491e-05, -4.33352543e-05,
          -4.33352543e-05, 3.78243822e-05, 3.78243822e-05,
          3.78243822e-05, 2.01730036e-05, 0., 0., 0., 0., 0., 0.,
          -7.11935209e-05, -1.15129937e-04, -1.55868882e-04,
          -8.11596328e-05, -8.11596328e-05, -4.04206803e-05, 0., 0., 0.,
          0., 0., 0., 0., 0., 0., -3.80870688e-06, -7.47092490e-05,
          -1.55868882e-04, -9.99101903e-05, -8.11596328e-05,
          -8.11596328e-05, 0., 0., 0., 0., 0., 0., 0., 0., 0., 0.,
          -1.02542108e-05, -1.35499417e-04, -1.55868882e-04,
          -8.11596328e-05, -8.11596328e-05, -4.04206803e-05, 0., 0., 0.,
          0., 0., 0., 0., 0., 0., 0., -9.50787289e-05, -1.55868882e-04,
          -1.55868882e-04, -8.11596328e-05, -6.07901602e-05, 0., 0., 0.,
          0., 0., 0., 0., 0., 0., 0., -8.20336845e-06, -1.35499417e-04,
          -1.55868882e-04, -9.22927793e-05, -8.11596328e-05,
          -2.03694781e-05, 0., 0., 0., 0., 0., 0., 0., 0., 0., 0.,
          -3.15026191e-05, -1.55868882e-04, -1.55868882e-04,
          -9.22927793e-05, -6.07901602e-05, 0., 0., 0., 0., 0., 0., 0.,
          0., 0., 0., 0., -9.38966114e-05, -1.55868882e-04,
          -1.55868882e-04, -8.11596328e-05, -2.03694781e-05, 0., 0., 0.,
          0., 0., 0., 0., 0., 0., 0., -4.04206803e-05, -1.55868882e-04,
          -1.55868882e-04, -1.55868882e-04, -4.04206803e-05, 0., 0., 0.,
          0., 0., 0., 0., 0., 0., 0., 0., -8.11596328e-05,
          -1.55868882e-04, -1.55868882e-04, -1.55868882e-04, 0., 0., 0.,
          0., 0., 0., 0., 0., 0., 0., 0., -4.04206803e-05,
          -8.11596328e-05, -1.55868882e-04, -1.55868882e-04,
          -1.15129937e-04, 0., 0., 0., 0., 0., 0., 0., 0., 0., 0.,
          -2.03694781e-05, -8.11596328e-05, -8.11596328e-05,
          -1.55868882e-04, -1.55868882e-04, -7.47092490e-05, 0., 0., 0.,
          0., 0., 0., 0., 0., 0., 0. ]
      - [ 8.27457770e-05, 8.27457770e-05, 4.64025361e-05, 0., 0., 0., 0.,
          4.64025361e-05, 8.27457770e-05, 8.27457770e-05, 8.27457770e-05,
          8.27457770e-05, 8.27457770e-05, 8.27457770e-05, 8.27457770e-05,
          8.27457770e-05, 8.27457770e-05, 3.69922309e-05, 0., 0.,
          1.29797297e-06, 1.29797297e-06, 0., 0., 3.69922309e-05,
          8.27457770e-05, 8.27457770e-05, 8.27457770e-05, 8.27457770e-05,
          8.27457770e-05, 8.27457770e-05, 8.27457770e-05, 7.56069276e-05,
          0., 0., 2.56349667e-05, 8.27457770e-05, 8.27457770e-05,
          2.56349667e-05, 0., 0., 7.56069276e-05, 8.27457770e-05,
          8.27457770e-05, 8.27457770e-05, 8.27457770e-05, 8.27457770e-05,
          8.27457770e-05, 4.54290566e-05, 0., 0., 8.27457770e-05,
          8.27457770e-05, 8.27457770e-05, 8.27457770e-05, 2.07675675e-05,
          0., 4.54290566e-05, 8.27457770e-05, 8.27457770e-05,
          8.27457770e-05, 8.27457770e-05, 7.86144956e-05, 7.40241812e-05,
          -8.05346917e-06, -5.34825231e-05, -5.34825231e-05,
          2.92632558e-05, 2.92632558e-05, 2.92632558e-05, 2.92632558e-05,
          -3.27149573e-05, -5.34825231e-05, -8.05346917e-06,
          2.92632558e-05, 2.92632558e-05, 2.92632558e-05, 2.92632558e-05,
          1.56070691e-05, 0., -7.13885174e-06, -8.27457770e-05,
          -8.27457770e-05, -5.71108139e-05, 0., 0., 0., -7.88518591e-05,
          -8.27457770e-05, -7.13885174e-06, 0., 0., 0., 0., 0., 0., 0.,
          -4.57535498e-05, -8.27457770e-05, -8.27457770e-05,
          -5.67863208e-05, -2.92043933e-06, -4.83494950e-05,
          -8.27457770e-05, -4.57535498e-05, 0., 0., 0., 0., 0., 0., 0.,
          0., 0., -4.77005087e-05, -8.27457770e-05, -8.27457770e-05,
          -8.27457770e-05, -8.27457770e-05, -4.77005087e-05, 0., 0., 0.,
          0., 0., 0., 0., 0., 0., -5.25679061e-05, -8.27457770e-05,
          -4.64025361e-05, -4.83494950e-05, -8.27457770e-05,
          -8.27457770e-05, -8.27457770e-05, -5.25679061e-05, 0., 0., 0.,
          0., 0., 0., 0., -3.73167240e-05, -8.27457770e-05,
          -7.62559139e-05, 0., 0., 0., -5.67863208e-05, -8.27457770e-05,
          -8.27457770e-05, -3.73167240e-05, 0., 0., 0., 0., 0., 0.,
          -8.27457770e-05, -8.27457770e-05, -5.02964540e-05, 0., 0., 0.,
          0., -6.19782149e-05, -8.27457770e-05, -8.27457770e-05, 0., 0.,
          0., 0., 0., 0., -8.27457770e-05, -8.27457770e-05,
          -3.89391926e-06, 0., 0., 0., 0., -6.19782149e-05,
          -8.27457770e-05, -8.27457770e-05, 0., 0., 0., 0., 0., 0.,
          -8.27457770e-05, -8.27457770e-05, -6.19782149e-05, 0., 0., 0.,
          0., -6.19782149e-05, -8.27457770e-05, -8.27457770e-05, 0., 0.,
          0., 0., 0., 0., -4.57535498e-05, -8.27457770e-05,
          -8.27457770e-05, -5.71108139e-05, 0., 0., -5.71108139e-05,
          -8.27457770e-05, -8.27457770e-05, -4.57535498e-05, 0., 0., 0.,
          0., 0., 0., 0., -4.57535498e-05, -8.27457770e-05,
          -8.27457770e-05, -8.27457770e-05, -8.27457770e-05,
          -8.27457770e-05, -8.27457770e-05, -4.57535498e-05, 0., 0., 0.,
          0., 0., 0., 0., 0., 0., -9.08581114e-06, -3.63432446e-05,
          -8.27457770e-05, -8.27457770e-05, -3.63432446e-05,
          -3.63432446e-05, 0., 0., 0., 0., 0., 0., 0., 0. ]
      - [ 9.45197171e-05, 8.61401859e-05, 4.89128106e-05, 1.99431397e-05,
          -6.77626358e-21, -6.77626358e-21, 2.62128924e-05,
          4.87731668e-05, 7.47323793e-05, 9.45197171e-05, 9.45197171e-05,
          9.45197171e-05, 9.45197171e-05, 9.45197171e-05, 9.45197171e-05,
          9.45197171e-05, 8.67847630e-05, 2.72660127e-05,
          -6.77626358e-21, -6.77626358e-21, -6.77626358e-21,
          -6.77626358e-21, -6.77626358e-21, -6.77626358e-21,
          4.87731668e-05, 5.47892414e-05, 8.20552523e-05, 9.45197171e-05,
          9.45197171e-05, 9.45197171e-05, 9.45197171e-05, 9.45197171e-05,
          5.34738901e-05, -6.77626358e-21, 2.57831721e-06,
          5.47892414e-05, 5.47892414e-05, 5.47892414e-05, 1.50401843e-06,
          -6.77626358e-21, -6.77626358e-21, 5.47892414e-05,
          5.47892414e-05, 9.45197171e-05, 9.45197171e-05, 9.45197171e-05,
          9.45197171e-05, 9.45197171e-05, 9.03673572e-06,
          -6.77626358e-21, 1.37510251e-05, 5.47892414e-05,
          7.22394907e-05, 7.47323793e-05, 7.47323793e-05,
          -6.77626358e-21, -6.77626358e-21, 3.00803677e-05,
          5.47892414e-05, 7.30185202e-05, 9.45197171e-05, 9.45197171e-05,
          8.87683054e-05, 8.23778464e-05, -5.37805499e-05,
          -5.37805499e-05, -1.56962631e-06, 1.00869090e-06,
          4.07391672e-05, 4.07391672e-05, 4.07391672e-05,
          -3.65138180e-06, -5.37805499e-05, -2.37001823e-05,
          1.00869090e-06, 1.00454263e-05, 4.07391672e-05, 4.07391672e-05,
          2.17275556e-05, 0., -9.45197171e-05, -9.45197171e-05,
          -3.97304757e-05, -8.25770621e-06, 0., 0., 0., -4.10382163e-05,
          -9.45197171e-05, -8.89333605e-05, -3.97304757e-05,
          -3.97304757e-05, 0., 0., 0., 0., -9.45197171e-05,
          -9.45197171e-05, -8.07686883e-05, -2.39940910e-05, 0., 0., 0.,
          -5.29849385e-05, -9.45197171e-05, -9.45197171e-05,
          -3.97304757e-05, -2.15011987e-05, 0., 0., 0., 0.,
          -6.85090563e-05, -9.45197171e-05, -9.45197171e-05,
          -7.04554186e-05, -5.30051730e-05, -5.05122807e-05,
          -7.09239612e-05, -9.45197171e-05, -9.45197171e-05,
          -9.45197171e-05, -3.97304757e-05, -2.15011987e-05, 0., 0., 0.,
          0., -1.07505994e-05, -7.88349498e-05, -9.45197171e-05,
          -9.45197171e-05, -9.45197171e-05, -9.45197171e-05,
          -7.41080366e-05, -8.07686883e-05, -9.45197171e-05,
          -9.45197171e-05, -3.97304757e-05, -1.07505994e-05, 0., 0., 0.,
          0., 0., -1.24644630e-05, -4.91843057e-05, -7.73309366e-05,
          -7.73309366e-05, -4.16642142e-05, -3.97304757e-05,
          -8.07686883e-05, -9.45197171e-05, -8.50658835e-05,
          -3.22517990e-05, 0., 0., 0., 0., 0., 0., 0., 0.,
          -1.97873342e-05, -3.72375835e-05, -3.97304757e-05,
          -3.97304757e-05, -8.33470112e-05, -9.45197171e-05,
          -6.44393513e-05, -1.24644630e-05, 0., 0., 0., 0., 0., 0., 0.,
          0., 0., 0., -1.90083065e-05, -4.27385130e-05, -9.45197171e-05,
          -9.45197171e-05, -3.72273753e-05, 0., 0., 0., 0., 0., 0., 0.,
          0., 0., 0., -1.74502475e-05, -3.97304757e-05, -8.63550449e-05,
          -9.45197171e-05, -8.62620072e-05, 0., 0., 0., 0., 0., 0., 0.,
          -1.99819588e-05, -5.47892414e-05, -4.44759717e-05,
          -6.02123546e-05, -8.42064474e-05, -8.42064474e-05,
          -9.45197171e-05, -9.20268212e-05, -1.91225190e-05, 0., 0., 0.,
          0., 0., 0., 0., -3.41627019e-05, -5.47892414e-05,
          -5.47892414e-05, -9.45197171e-05, -9.45197171e-05,
          -9.45197171e-05, -9.37406876e-05, -2.66426123e-05, 0., 0., 0.,
          0., 0., 0., 0., 0., 0., -8.37953121e-06, -5.80299566e-05,
          -6.83068210e-05, -6.37947669e-05, -6.37947669e-05,
          -3.65261599e-06, 0., 0., 0., 0., 0., 0., 0., 0., 0. ]
      - [ 7.55982037e-05, 7.55982037e-05, 7.55982037e-05, 7.55982037e-05,
          6.79217192e-05, 2.54058250e-05, -2.03287907e-20,
          -2.03287907e-20, 4.25158942e-05, 5.01923751e-05,
          7.55982037e-05, 7.55982037e-05, 7.55982037e-05, 7.55982037e-05,
          7.55982037e-05, 7.55982037e-05, 7.55982037e-05, 7.55982037e-05,
          7.55982037e-05, 7.55982037e-05, 5.86705755e-05, 1.26530977e-05,
          -2.03287907e-20, -2.03287907e-20, 3.32647505e-05,
          5.01923751e-05, 6.28454727e-05, 7.55982037e-05, 7.55982037e-05,
          7.55982037e-05, 7.55982037e-05, 7.55982037e-05, 7.55982037e-05,
          7.55982037e-05, 7.55982037e-05, 7.55982037e-05, 2.54058250e-05,
          4.28411977e-06, 5.01923751e-05, -2.03287907e-20,
          -2.03287907e-20, 5.01923751e-05, 5.01923751e-05,
          7.55982037e-05, 7.55982037e-05, 7.55982037e-05, 7.55982037e-05,
          7.55982037e-05, 7.55982037e-05, 7.55982037e-05, 7.55982037e-05,
          6.57565615e-05, 1.60405416e-05, -2.03287907e-20,
          5.01923751e-05, -2.03287907e-20, -2.03287907e-20,
          4.03507329e-05, 5.01923751e-05, 6.62329185e-05, 7.55982037e-05,
          7.55982037e-05, 7.13086338e-05, 6.65424450e-05, 3.03844463e-05,
          3.03844463e-05, 3.03844463e-05, 1.87713085e-05,
          -3.25606561e-05, -4.12770969e-05, 4.97861993e-06,
          -4.12770969e-05, -4.52137538e-05, -6.63451738e-06,
          4.97861993e-06, 7.56901818e-06, 3.03844463e-05, 3.03844463e-05,
          1.62050383e-05, 0., 0., 0., 0., -5.01923751e-05,
          -7.55982037e-05, -5.00099304e-05, -2.54058250e-05,
          -6.07993679e-05, -6.29451024e-05, -7.55982037e-05,
          -2.54058250e-05, -2.54058250e-05, 0., 0., 0., 0., 0., 0.,
          -4.33032255e-06, -6.29451024e-05, -7.55982037e-05,
          -2.54058250e-05, -2.54058250e-05, -1.27527283e-05,
          -5.10890495e-05, -7.55982037e-05, -2.97361476e-05,
          -2.54058250e-05, -1.27527283e-05, 0., 0., 0., 0., 0.,
          -1.53529618e-05, -7.55982037e-05, -7.48108723e-05,
          -2.54058250e-05, -2.54058250e-05, 0., -4.94050437e-05,
          -7.55982037e-05, -4.07587868e-05, -2.54058250e-05,
          -2.54058250e-05, 0., 0., 0., 0., 0., -5.95989441e-05,
          -7.55982037e-05, -6.79217192e-05, -2.54058250e-05,
          -1.27527283e-05, 0., -4.25158942e-05, -6.20484279e-05,
          -7.22520417e-05, -2.54058250e-05, -2.54058250e-05,
          -1.27527283e-05, 0., 0., 0., 0., -6.45391920e-05,
          -7.55982037e-05, -7.34330388e-05, -6.14262390e-05,
          -6.14262390e-05, -6.14262390e-05, -7.34330388e-05,
          -7.55982037e-05, -7.55982037e-05, -2.54058250e-05,
          -2.54058250e-05, -2.54058250e-05, 0., 0., 0., -2.18800160e-05,
          -7.55982037e-05, -7.55982037e-05, -7.55982037e-05,
          -7.55982037e-05, -7.55982037e-05, -7.55982037e-05,
          -7.55982037e-05, -7.55982037e-05, -7.55982037e-05,
          -4.46954436e-05, -2.54058250e-05, -2.54058250e-05,
          -2.59039780e-06, 0., 0., -4.26713195e-05, -7.55982037e-05,
          -7.16615468e-05, -5.82769098e-05, -5.82769098e-05,
          -5.82769098e-05, -5.82769098e-05, -5.82769098e-05,
          -7.16615468e-05, -7.55982037e-05, -5.53244172e-05,
          -2.54058250e-05, -2.54058250e-05, -1.60405416e-05, 0., 0.,
          -7.55982037e-05, -7.55982037e-05, -6.39850623e-05,
          -2.54058250e-05, -1.69372179e-05, -1.69372179e-05,
          -1.69372179e-05, -1.69372179e-05, -5.55164552e-05,
          -6.71295929e-05, -7.55982037e-05, -2.54058250e-05,
          -2.54058250e-05, -2.54058250e-05, 0., -3.51916715e-05,
          -7.55982037e-05, -7.55982037e-05, -2.65868221e-05,
          -1.27527283e-05, 0., 0., 0., 0., -3.85792373e-05,
          -5.01923751e-05, -6.29451024e-05, -4.78447691e-05,
          -2.54058250e-05, -2.54058250e-05, -1.27527283e-05,
          -4.18572126e-05, -7.55982037e-05, -7.55982037e-05,
          -2.54058250e-05, -6.77488697e-06, 0., 0., 0., 0., 0.,
          -5.01923751e-05, -5.01923751e-05, -4.86321005e-05,
          -2.54058250e-05, -2.54058250e-05, -2.54058250e-05,
          -5.01923751e-05, -5.01923751e-05, -4.09412314e-05, 0., 0., 0.,
          0., 0., 0., 0., -4.09412314e-05, -5.01923751e-05,
          -5.01923751e-05, 0., 0., 0. ]
      - [ -8.47032947e-21, -8.47032947e-21, -8.47032947e-21,
          -8.47032947e-21, -8.47032947e-21, -8.47032947e-21,
          -8.47032947e-21, 7.64077231e-06, 4.21092918e-05,
          7.34302739e-05, 7.34302739e-05, 7.34302739e-05, 7.34302739e-05,
          7.34302739e-05, 7.34302739e-05, 7.34302739e-05,
          -8.47032947e-21, -8.47032947e-21, -8.47032947e-21,
          -8.47032947e-21, -8.47032947e-21, -8.47032947e-21,
          -8.47032947e-21, -8.47032947e-21, -8.47032947e-21,
          3.28104652e-05, 6.96098941e-05, 7.34302739e-05, 7.34302739e-05,
          7.34302739e-05, 7.34302739e-05, 7.34302739e-05,
          -8.47032947e-21, -8.47032947e-21, 1.57505146e-05,
          5.82084249e-05, 5.82084249e-05, 5.82084249e-05, 5.82084249e-05,
          2.28268334e-07, -8.47032947e-21, -8.47032947e-21,
          6.20288120e-05, 7.34302739e-05, 7.34302739e-05, 7.34302739e-05,
          7.34302739e-05, 7.34302739e-05, -8.47032947e-21,
          -8.47032947e-21, 1.57505146e-05, 6.20288120e-05,
          6.58491990e-05, 6.58491990e-05, 6.58491990e-05, 1.05003437e-05,
          -8.47032947e-21, -8.47032947e-21, 3.58381294e-05,
          7.34302739e-05, 7.34302739e-05, 7.34302739e-05, 6.89880835e-05,
          6.40523067e-05, -4.19647185e-05, -4.19647185e-05,
          -2.62142039e-05, 2.38844805e-05, 3.14655590e-05,
          3.14655590e-05, 3.14655590e-05, -7.38828248e-06,
          -4.19647185e-05, -4.19647185e-05, 1.62437082e-05,
          2.38844805e-05, 3.14655590e-05, 3.14655590e-05, 1.67816306e-05,
          0., -7.34302739e-05, -7.34302739e-05, -5.76797611e-05,
          -7.58107853e-06, 0., 0., 0., -6.00827952e-05, -7.34302739e-05,
          -7.34302739e-05, -1.52218508e-05, 0., 0., 0., 0., 0.,
          -7.34302739e-05, -7.34302739e-05, -6.20168576e-05,
          -2.78367843e-05, -2.40163990e-05, -2.40163990e-05,
          -6.96098941e-05, -7.34302739e-05, -7.34302739e-05,
          -3.05158301e-05, -1.14014647e-05, 0., 0., 0., 0., 0.,
          -7.34302739e-05, -7.34302739e-05, -7.34302739e-05,
          -7.34302739e-05, -7.34302739e-05, -7.34302739e-05,
          -7.34302739e-05, -7.34302739e-05, -3.50811970e-05,
          -1.72762666e-05, 0., 0., 0., 0., 0., 0., -7.34302739e-05,
          -7.34302739e-05, -7.34302739e-05, -7.34302739e-05,
          -7.34302739e-05, -7.34302739e-05, -7.34302739e-05,
          -7.34302739e-05, -7.34302739e-05, -7.00062519e-05,
          -1.14014647e-05, 0., 0., 0., 0., 0., -7.34302739e-05,
          -7.34302739e-05, -5.74514925e-05, -1.14014647e-05,
          -7.58107853e-06, -7.58107853e-06, -7.58107853e-06,
          -2.48692959e-05, -7.34302739e-05, -7.34302739e-05,
          -6.45278124e-05, -1.14014647e-05, 0., 0., 0., 0.,
          -7.34302739e-05, -7.34302739e-05, -5.76797611e-05,
          -7.58107853e-06, 0., 0., 0., 0., -5.76797611e-05,
          -7.34302739e-05, -7.34302739e-05, -1.52218508e-05, 0., 0., 0.,
          0., -7.34302739e-05, -7.34302739e-05, -5.76797611e-05,
          -7.58107853e-06, 0., 0., 0., 0., -5.76797611e-05,
          -7.34302739e-05, -7.34302739e-05, -1.52218508e-05, 0., 0., 0.,
          0., -7.34302739e-05, -7.34302739e-05, -5.76797611e-05,
          -7.58107853e-06, 0., 0., -3.82038615e-06, -1.14014647e-05,
          -5.99624436e-05, -7.34302739e-05, -7.34302739e-05,
          -1.52218508e-05, 0., 0., 0., 0., -7.34302739e-05,
          -7.34302739e-05, -5.76797611e-05, -1.52218508e-05,
          -1.52218508e-05, -1.52218508e-05, -1.52218508e-05,
          -7.16041322e-05, -7.34302739e-05, -7.34302739e-05,
          -4.26140505e-05, -1.14014647e-05, 0., 0., 0., 0.,
          -7.34302739e-05, -7.34302739e-05, -7.34302739e-05,
          -7.34302739e-05, -7.34302739e-05, -7.34302739e-05,
          -7.34302739e-05, -7.34302739e-05, -7.34302739e-05,
          -4.44401994e-05, -1.14014647e-05, 0., 0., 0., 0., 0.,
          -7.34302739e-05, -7.34302739e-05, -7.34302739e-05,
          -7.34302739e-05, -7.34302739e-05, -7.34302739e-05,
          -7.34302739e-05, -4.51250016e-05, -3.51413728e-05,
          -7.58107853e-06, 0., 0., 0., 0., 0., 0. ]
      - [ 1.06392086e-04, 1.06392086e-04, 1.06392086e-04, 1.06392086e-04,
          5.45143230e-05, 1.02617723e-05, 0., 0., 2.01618059e-05,
          7.01310710e-05, 9.00939776e-05, 1.06392086e-04, 1.06392086e-04,
          1.06392086e-04, 1.06392086e-04, 1.06392086e-04, 1.06392086e-04,
          1.06392086e-04, 9.09742375e-05, 0., 0., 0., 0., 0., 0., 0.,
          2.25337826e-05, 7.74176733e-05, 1.06392086e-04, 1.06392086e-04,
          1.06392086e-04, 1.06392086e-04, 1.06392086e-04, 9.33462143e-05,
          0., 0., 0., 2.60917495e-05, 5.07010118e-05, 2.60917495e-05,
          1.30458748e-05, 0., 3.76551361e-05, 7.56067748e-05,
          7.86249366e-05, 1.06392086e-04, 1.06392086e-04, 1.06392086e-04,
          1.06392086e-04, 2.41453472e-06, 0., 0., 4.83290351e-05,
          7.56067748e-05, 7.56067748e-05, 7.56067748e-05, 7.56067748e-05,
          4.83290351e-05, 7.56067748e-05, 7.56067748e-05, 7.56067748e-05,
          7.93493018e-05, 1.01656013e-04, 9.63936982e-05,
          -1.81672585e-05, -7.28448649e-05, -7.28448649e-05,
          -2.68878066e-05, 6.14225564e-06, 2.87181538e-05,
          3.35472250e-05, 3.35472250e-05, 3.35472250e-05, 2.67865271e-05,
          2.76190713e-06, 2.76190713e-06, 2.67865271e-05, 2.96839680e-05,
          1.78918526e-05, 0., -6.66845954e-05, -1.06392086e-04,
          -1.06392086e-04, -3.07853152e-05, 0., 0., 0., 0., 0., 0., 0.,
          0., 0., 0., 0., 0., -1.06392086e-04, -1.06392086e-04,
          -1.06392086e-04, -3.07853152e-05, 0., 0., 0., 0., 0., 0., 0.,
          0., 0., 0., 0., 0., -1.06392086e-04, -1.06392086e-04,
          -6.87369538e-05, 0., 0., 0., 0., 0., 0., 0., 0., 0., 0., 0.,
          0., 0., -1.06392086e-04, -1.06392086e-04, -6.87369538e-05, 0.,
          0., 0., 0., 0., 0., 0., 0., 0., 0., 0., 0., 0.,
          -1.06392086e-04, -1.06392086e-04, -1.06392086e-04,
          -3.07853152e-05, 0., 0., 0., 0., 0., 0., 0., 0., 0., 0., 0.,
          0., -6.66845954e-05, -1.06392086e-04, -1.06392086e-04,
          -3.07853152e-05, 0., 0., 0., 0., 0., 0., -4.82906944e-06,
          -4.82906944e-06, -3.50107507e-06, 0., 0., 0., -5.17144836e-05,
          -1.06392086e-04, -1.06392086e-04, -6.87369538e-05,
          -2.74049671e-05, -4.82906944e-06, 0., 0., 0., -6.76069703e-06,
          -3.07853152e-05, -3.07853152e-05, -3.07853152e-05,
          -3.07853152e-05, 0., 0., 0., -1.03977552e-04, -1.06392086e-04,
          -1.06392086e-04, -5.80630549e-05, -3.07853152e-05,
          -3.07853152e-05, -3.07853152e-05, -3.07853152e-05,
          -8.50442957e-05, -5.80630549e-05, -3.07853152e-05,
          -3.07853152e-05, -2.70427881e-05, 0., 0., 0., -1.30458748e-05,
          -1.04822640e-04, -1.06392086e-04, -1.06392086e-04,
          -9.33462143e-05, -8.03003422e-05, -8.03003422e-05,
          -9.33462143e-05, -1.06392086e-04, -1.06392086e-04,
          -3.07853152e-05, -2.77671479e-05, 0., 0., 0., 0., 0.,
          -1.54178524e-05, -1.06392086e-04, -1.06392086e-04,
          -1.06392086e-04, -1.06392086e-04, -1.06392086e-04,
          -1.06392086e-04, -1.06392086e-04, -4.62031676e-05,
          -1.82297372e-05, 0., 0., 0., 0., 0., 0., 0., 0.,
          -5.18777670e-05, -5.18777670e-05, -8.62302841e-05,
          -6.63649771e-05, -6.63649771e-05, -1.62981087e-05, 0., 0., 0.,
          0., 0., 0. ]
      - [ 0., 0., 0., 0., 0., 0., 0., 7.80821210e-06, 3.28766801e-05,
          5.23972085e-05, 6.85103005e-05, 8.47647389e-05, 8.84396504e-05,
          8.84396504e-05, 8.84396504e-05, 8.84396504e-05, 0., 0., 0., 0.,
          0., 0., 0., 0., 0., 3.76027019e-05, 5.23972085e-05,
          5.23972085e-05, 6.78035867e-05, 8.84396504e-05, 8.84396504e-05,
          8.84396504e-05, 0., 0., 4.31506442e-06, 5.23972085e-05,
          5.23972085e-05, 5.23972085e-05, 3.12328484e-05, 0., 0., 0.,
          3.80136626e-05, 5.23972085e-05, 5.23972085e-05, 6.79449295e-05,
          8.84396504e-05, 8.84396504e-05, 0., 0., 4.31506442e-06,
          5.23972085e-05, 6.25738976e-05, 6.25738976e-05, 6.25738976e-05,
          4.32588495e-05, 1.01766900e-05, 9.89400405e-07, 0.,
          5.23972085e-05, 5.23972085e-05, 5.23972085e-05, 6.75366246e-05,
          7.53436543e-05, -4.44991274e-05, -4.44991274e-05,
          -4.01840662e-05, 7.89808109e-06, 4.39405230e-05,
          4.39405230e-05, 4.39405230e-05, 4.39405230e-05, 2.29816415e-05,
          -8.45668546e-06, -3.22022970e-05, -1.38827199e-05,
          7.89808109e-06, 7.89808109e-06, -1.26074974e-05, 0.,
          -8.84396504e-05, -8.84396504e-05, -8.41245928e-05,
          -3.60424419e-05, 0., 0., 0., 0., -4.31506442e-06,
          -5.23972085e-05, -5.23972085e-05, -7.09347078e-05,
          -3.60424419e-05, -3.60424419e-05, -3.60424419e-05,
          -1.69611503e-05, -8.84396504e-05, -8.84396504e-05,
          -8.41245928e-05, -3.60424419e-05, 0., 0., 0., 0.,
          -3.28766805e-06, -5.11643339e-05, -5.23972085e-05,
          -7.79802795e-05, -3.60424419e-05, -3.60424419e-05,
          -3.60424419e-05, -1.69611503e-05, -8.84396504e-05,
          -8.84396504e-05, -8.41245928e-05, -3.60424419e-05, 0., 0., 0.,
          0., 0., -4.80821473e-05, -5.23972085e-05, -5.23972085e-05,
          -3.60424419e-05, -3.60424419e-05, -3.60424419e-05,
          -1.75265213e-05, -8.84396504e-05, -8.84396504e-05,
          -8.41245928e-05, -3.60424419e-05, 0., 0., 0., 0., 0.,
          -4.80821473e-05, -5.23972085e-05, -5.23972085e-05,
          -3.60424419e-05, -3.60424419e-05, -3.60424419e-05,
          -1.75265213e-05, -8.84396504e-05, -8.84396504e-05,
          -8.41245928e-05, -3.60424419e-05, 0., 0., 0., 0.,
          -3.28766805e-06, -5.11643339e-05, -5.23972085e-05,
          -8.05244490e-05, -3.60424419e-05, -3.60424419e-05,
          -3.60424419e-05, -1.69611503e-05, -8.84396504e-05,
          -8.84396504e-05, -8.41245928e-05, -3.60424419e-05, 0., 0., 0.,
          0., -4.31506442e-06, -5.23972085e-05, -5.23972085e-05,
          -5.65511582e-05, -3.60424419e-05, -3.60424419e-05,
          -3.60424419e-05, -1.69611503e-05, -8.84396504e-05,
          -8.84396504e-05, -8.41245928e-05, -3.60424419e-05, 0., 0., 0.,
          0., -5.23972085e-05, -5.23972085e-05, -8.71675657e-05,
          -5.04259915e-05, -3.60424419e-05, -3.60424419e-05,
          -3.60424419e-05, 0., -8.84396504e-05, -8.84396504e-05,
          -8.41245928e-05, -3.60424419e-05, -2.58657528e-05,
          -2.58657528e-05, -2.58657528e-05, -4.51808046e-05,
          -7.82629650e-05, -8.84396504e-05, -8.22752772e-05,
          -3.60424419e-05, -3.60424419e-05, -3.60424419e-05,
          -1.46996636e-05, 0., -8.84396504e-05, -8.84396504e-05,
          -8.41245928e-05, -3.60424419e-05, -3.60424419e-05,
          -6.56314587e-05, -8.67958224e-05, -8.84396504e-05,
          -8.84396504e-05, -8.84396504e-05, -4.91931169e-05,
          -3.60424419e-05, -3.60424419e-05, -2.04947228e-05, 0., 0.,
          -8.84396504e-05, -8.84396504e-05, -8.84396504e-05,
          -8.84396504e-05, -8.84396504e-05, -8.84396504e-05,
          -8.84396504e-05, -8.84396504e-05, -8.84396504e-05,
          -5.08369485e-05, -3.60424419e-05, -3.60424419e-05,
          -2.06360655e-05, 0., 0., 0., -8.84396504e-05, -8.84396504e-05,
          -8.84396504e-05, -8.84396504e-05, -8.84396504e-05,
          -8.84396504e-05, -7.54944631e-05, -5.74122860e-05,
          -3.60424419e-05, -3.60424419e-05, -1.69611503e-05,
          -3.67491589e-06, 0., 0., 0., 0. ]
      - [ 8.87054739e-06, 6.77626358e-21, 6.77626358e-21, 6.77626358e-21,
          6.77626358e-21, 6.77626358e-21, 6.77626358e-21, 6.77626358e-21,
          2.90554253e-05, 5.83396322e-05, 5.83396322e-05, 7.60807307e-05,
          9.36832221e-05, 9.36832221e-05, 9.36832221e-05, 9.36832221e-05,
          6.77626358e-21, 6.77626358e-21, 6.77626358e-21, 6.77626358e-21,
          6.77626358e-21, 6.77626358e-21, 6.77626358e-21, 6.77626358e-21,
          2.90554253e-05, 5.83396322e-05, 5.83396322e-05, 7.60807307e-05,
          9.36832221e-05, 9.36832221e-05, 9.36832221e-05, 9.36832221e-05,
          6.77626358e-21, 6.77626358e-21, 2.90554253e-05, 5.83396322e-05,
          5.83396322e-05, 5.83396322e-05, 5.83396322e-05, 5.83396322e-05,
          5.83396322e-05, 5.83396322e-05, 5.83396322e-05, 7.60807307e-05,
          9.36832221e-05, 9.36832221e-05, 9.36832221e-05, 9.36832221e-05,
          6.77626358e-21, 6.77626358e-21, 2.90554253e-05, 5.83396322e-05,
          5.83396322e-05, 5.83396322e-05, 5.83396322e-05, 5.83396322e-05,
          5.83396322e-05, 5.83396322e-05, 5.83396322e-05, 7.60807307e-05,
          9.36832221e-05, 9.36832221e-05, 9.04612607e-05, 8.68813004e-05,
          -7.08609805e-05, -7.08609805e-05, -4.18055570e-05,
          -1.25213501e-05, 2.28222380e-05, 2.28222380e-05,
          2.28222380e-05, 2.28222380e-05, 2.28222380e-05, 2.28222380e-05,
          2.28222380e-05, 2.28222380e-05, 2.28222380e-05, 2.28222380e-05,
          1.21718604e-05, 0., -9.36832221e-05, -9.36832221e-05,
          -6.46277986e-05, -3.53435862e-05, 0., 0., 0., 0., 0., 0., 0.,
          0., 0., 0., 0., 0., -9.36832221e-05, -9.36832221e-05,
          -7.26351936e-05, -5.18159541e-05, -3.40748593e-05,
          -3.40748593e-05, -3.40748593e-05, -2.58386754e-05,
          -1.76024932e-05, -1.76024932e-05, 0., 0., 0., 0., 0., 0.,
          -9.36832221e-05, -9.36832221e-05, -9.36832221e-05,
          -9.36832221e-05, -9.36832221e-05, -9.36832221e-05,
          -9.36832221e-05, -6.46277986e-05, -3.53435862e-05,
          -3.53435862e-05, 0., 0., 0., 0., 0., 0., -9.36832221e-05,
          -9.36832221e-05, -9.36832221e-05, -9.36832221e-05,
          -9.36832221e-05, -9.36832221e-05, -9.36832221e-05,
          -6.46277986e-05, -3.53435862e-05, -3.53435862e-05, 0., 0., 0.,
          0., 0., 0., -9.36832221e-05, -9.36832221e-05, -6.46277986e-05,
          -3.53435862e-05, -1.76024932e-05, -1.76024932e-05,
          -1.76024932e-05, -1.76024932e-05, -1.76024932e-05,
          -1.76024932e-05, 0., 0., 0., 0., 0., 0., -9.36832221e-05,
          -9.36832221e-05, -6.46277986e-05, -3.53435862e-05, 0., 0., 0.,
          0., 0., 0., 0., 0., 0., 0., 0., 0., -9.36832221e-05,
          -9.36832221e-05, -6.46277986e-05, -3.53435862e-05, 0., 0., 0.,
          0., 0., 0., 0., 0., 0., 0., 0., 0., -9.36832221e-05,
          -9.36832221e-05, -6.46277986e-05, -3.53435862e-05,
          -1.76024932e-05, -1.76024932e-05, -1.76024932e-05,
          -1.76024932e-05, -1.76024932e-05, -1.76024932e-05,
          -1.76024932e-05, -1.76024932e-05, 0., 0., 0., 0.,
          -9.36832221e-05, -9.36832221e-05, -6.46277986e-05,
          -3.53435862e-05, -3.53435862e-05, -3.53435862e-05,
          -3.53435862e-05, -3.53435862e-05, -3.53435862e-05,
          -3.53435862e-05, -3.53435862e-05, -3.53435862e-05, 0., 0., 0.,
          0., -9.36832221e-05, -9.36832221e-05, -9.36832221e-05,
          -9.36832221e-05, -9.36832221e-05, -9.36832221e-05,
          -9.36832221e-05, -9.36832221e-05, -9.36832221e-05,
          -3.53435862e-05, -3.53435862e-05, -3.53435862e-05, 0., 0., 0.,
          0., -9.36832221e-05, -9.36832221e-05, -9.36832221e-05,
          -9.36832221e-05, -9.36832221e-05, -9.36832221e-05,
          -9.36832221e-05, -9.36832221e-05, -9.36832221e-05,
          -3.53435862e-05, -3.53435862e-05, -3.53435862e-05, 0., 0., 0.,
          0. ]
      - [ 1.15384892e-05, -2.03287907e-20, -2.03287907e-20,
          -2.03287907e-20, -2.03287907e-20, -2.03287907e-20,
          -2.03287907e-20, -2.03287907e-20, -2.03287907e-20,
          5.45934781e-05, 5.45934781e-05, 1.05323044e-04, 1.05323044e-04,
          1.05323044e-04, 1.05323044e-04, 1.05323044e-04,
          -2.03287907e-20, -2.03287907e-20, -2.03287907e-20,
          -2.03287907e-20, -2.03287907e-20, -2.03287907e-20,
          -2.03287907e-20, -2.03287907e-20, -2.03287907e-20,
          5.45934781e-05, 5.45934781e-05, 1.05323044e-04, 1.05323044e-04,
          1.05323044e-04, 1.05323044e-04, 1.05323044e-04,
          -2.03287907e-20, -2.03287907e-20, 1.22032479e-05,
          5.45934781e-05, 5.45934781e-05, 5.45934781e-05, 5.45934781e-05,
          5.45934781e-05, 5.45934781e-05, 5.45934781e-05, 5.45934781e-05,
          1.05323044e-04, 1.05323044e-04, 1.05323044e-04, 1.05323044e-04,
          1.05323044e-04, -2.03287907e-20, -2.03287907e-20,
          1.22032479e-05, 5.45934781e-05, 5.45934781e-05, 5.45934781e-05,
          5.45934781e-05, 5.45934781e-05, 5.45934781e-05, 5.45934781e-05,
          5.45934781e-05, 1.05323044e-04, 1.05323044e-04, 1.05323044e-04,
          1.01390113e-04, 9.70201872e-05, -7.74647924e-05,
          -7.74647924e-05, -6.54756368e-05, -2.28713143e-05,
          2.78582484e-05, 2.78582484e-05, 2.78582484e-05, 2.78582484e-05,
          2.78582484e-05, 2.78582484e-05, 2.78582484e-05, 2.78582484e-05,
          2.78582484e-05, 2.78582484e-05, 1.48577328e-05, 0.,
          -1.05323044e-04, -1.05323044e-04, -9.31197937e-05,
          -5.07295626e-05, 0., 0., 0., 0., 0., 0., 0., 0., 0., 0., 0.,
          0., -1.05323044e-04, -1.05323044e-04, -9.65452637e-05,
          -6.61441954e-05, -1.54146292e-05, -1.54146292e-05,
          -1.54146292e-05, -1.54146292e-05, 0., 0., 0., 0., 0., 0., 0.,
          0., -1.05323044e-04, -1.05323044e-04, -1.05323044e-04,
          -1.05323044e-04, -1.05323044e-04, -1.05323044e-04,
          -1.05323044e-04, -1.05323044e-04, -7.49219689e-05,
          -3.22281921e-05, 0., 0., 0., 0., 0., 0., -1.05323044e-04,
          -1.05323044e-04, -1.05323044e-04, -1.05323044e-04,
          -1.05323044e-04, -1.05323044e-04, -1.05323044e-04,
          -1.05323044e-04, -7.49219689e-05, -3.22281921e-05, 0., 0., 0.,
          0., 0., 0., -1.05323044e-04, -1.05323044e-04, -9.65452637e-05,
          -6.61441954e-05, -6.61441954e-05, -6.61441954e-05,
          -6.61441954e-05, -6.61441954e-05, -5.07295626e-05,
          -3.22281921e-05, 0., 0., 0., 0., 0., 0., -1.05323044e-04,
          -1.05323044e-04, -9.31197937e-05, -5.07295626e-05,
          -2.52653117e-05, -2.52653117e-05, -2.52653117e-05,
          -2.52653117e-05, -2.52653117e-05, 0., 0., 0., 0., 0., 0., 0.,
          -1.05323044e-04, -1.05323044e-04, -9.33338815e-05,
          -5.07295626e-05, 0., 0., 0., 0., 0., 0., 0., 0., 0., 0., 0.,
          0., -1.05323044e-04, -1.05323044e-04, -9.31197937e-05,
          -5.07295626e-05, 0., 0., 0., 0., 0., 0., 0., 0., 0., 0., 0.,
          0., -1.05323044e-04, -1.05323044e-04, -9.31197937e-05,
          -5.07295626e-05, 0., 0., 0., 0., 0., 0., 0., 0., 0., 0., 0.,
          0., -1.05323044e-04, -1.05323044e-04, -9.31197937e-05,
          -5.07295626e-05, 0., 0., 0., 0., 0., 0., 0., 0., 0., 0., 0.,
          0., -1.05323044e-04, -1.05323044e-04, -9.31197937e-05,
          -5.07295626e-05, 0., 0., 0., 0., 0., 0., 0., 0., 0., 0., 0.,
          0. ]
      - [ 9.10371964e-05, 9.10371964e-05, 9.10371964e-05, 9.10371964e-05,
          6.05477508e-05, 1.39829299e-05, -2.37169225e-20,
          -2.37169225e-20, 3.24653702e-05, 4.30466753e-05,
          7.53064014e-05, 9.10371964e-05, 9.10371964e-05, 9.10371964e-05,
          9.10371964e-05, 9.10371964e-05, 9.10371964e-05, 9.10371964e-05,
          7.30008833e-05, 1.27011608e-05, -2.37169225e-20,
          -2.37169225e-20, -2.37169225e-20, -2.37169225e-20,
          -2.37169225e-20, -2.37169225e-20, 3.63131148e-05,
          6.13234733e-05, 7.63551216e-05, 9.10371964e-05, 9.10371964e-05,
          9.10371964e-05, 9.10371964e-05, 7.75700828e-05, 4.89402555e-06,
          -2.37169225e-20, -2.37169225e-20, 2.11626102e-05,
          2.47698736e-05, 2.11626102e-05, 1.53909896e-05,
          -2.37169225e-20, 3.94394119e-05, 6.13234733e-05,
          6.13234733e-05, 7.74038417e-05, 9.10371964e-05, 9.10371964e-05,
          9.10371964e-05, 1.46820757e-05, -2.37169225e-20,
          -2.37169225e-20, 5.72352437e-05, 6.13234733e-05,
          6.13234733e-05, 7.20437165e-05, 6.91306122e-05, 4.52110326e-05,
          6.13234733e-05, 6.13234733e-05, 6.13234733e-05, 6.13234733e-05,
          7.49813844e-05, 8.27251715e-05, -5.53827203e-06,
          -6.31481671e-05, -6.31481671e-05, -1.28869660e-05,
          -1.82469228e-06, 2.13636667e-05, 2.78890329e-05,
          2.78890329e-05, 2.78890329e-05, 2.78890329e-05, 2.13636667e-05,
          -1.82469228e-06, 2.02061346e-06, 2.13636667e-05,
          1.11453701e-05, 0., -4.76432833e-05, -9.10371964e-05,
          -9.10371964e-05, -2.97137249e-05, -2.68006152e-05, 0., 0., 0.,
          0., 0., 0., 0., 0., 0., 0., 0., -7.82195129e-05,
          -9.10371964e-05, -9.10371964e-05, -2.97137249e-05, 0., 0., 0.,
          0., 0., 0., 0., 0., 0., 0., 0., 0., -7.82195129e-05,
          -9.10371964e-05, -4.65476187e-05, -2.97137249e-05, 0., 0.,
          -6.13234733e-05, -6.13234733e-05, -9.10371964e-05,
          -9.10371964e-05, -9.10371964e-05, -2.97137249e-05,
          -2.97137249e-05, -2.97137249e-05, -2.97137249e-05, 0.,
          -7.82195129e-05, -9.10371964e-05, -4.65476187e-05,
          -2.97137249e-05, 0., 0., -6.13234733e-05, -6.13234733e-05,
          -9.10371964e-05, -9.10371964e-05, -9.10371964e-05,
          -2.97137249e-05, -2.97137249e-05, -2.97137249e-05,
          -2.97137249e-05, 0., -7.82195129e-05, -9.10371964e-05,
          -9.10371964e-05, -2.97137249e-05, 0., 0., -5.77162109e-06,
          -5.77162109e-06, -3.26887603e-05, -8.82406166e-05,
          -8.82406166e-05, -2.70336641e-05, -2.97137249e-05,
          -2.97137249e-05, -2.97137249e-05, 0., -4.76432833e-05,
          -9.10371964e-05, -9.10371964e-05, -2.97137249e-05,
          -2.71501885e-05, 0., 0., 0., 0., -6.13234733e-05,
          -6.13234733e-05, -5.47664740e-06, -2.97137249e-05,
          -2.97137249e-05, -2.97137249e-05, 0., -7.45501029e-06,
          -8.90562806e-05, -9.10371964e-05, -4.07759981e-05,
          -2.97137249e-05, -2.43536033e-05, -4.19487878e-06, 0., 0.,
          -6.13234733e-05, -6.78488432e-05, -2.97137249e-05,
          -2.97137249e-05, -2.97137249e-05, -2.97137249e-05, 0., 0.,
          -6.02426808e-05, -9.10371964e-05, -9.10371964e-05,
          -3.38019563e-05, -2.97137249e-05, -2.97137249e-05,
          -2.97137249e-05, -2.97137249e-05, -9.10371964e-05,
          -9.10371964e-05, -2.97137249e-05, -2.97137249e-05,
          -2.97137249e-05, -2.97137249e-05, 0., 0., -1.34671154e-05,
          -7.76368906e-05, -9.10371964e-05, -9.10371964e-05,
          -6.98745862e-05, -6.98745862e-05, -6.98745862e-05,
          -7.56462105e-05, -9.10371964e-05, -9.10371964e-05,
          -2.97137249e-05, -2.97137249e-05, -2.97137249e-05,
          -2.97137249e-05, 0., 0., 0., -1.80363149e-05, -7.83360374e-05,
          -9.10371964e-05, -9.10371964e-05, -9.10371964e-05,
          -9.10371964e-05, -9.10371964e-05, -9.10371964e-05,
          -7.44437857e-05, -1.80612842e-05, -2.97137249e-05,
          -2.97137249e-05, -2.97137249e-05, 0., 0., 0., 0., 0.,
          -3.04894475e-05, -4.45889018e-05, -9.10371964e-05,
          -5.85718299e-05, -5.85718299e-05, -3.72702780e-05,
          -1.57307950e-05, -5.82622079e-07, -1.57307950e-05,
          -1.57307950e-05, -1.57307950e-05, 0. ]
      - [ -1.35525272e-20, -1.35525272e-20, 3.64545349e-06,
          4.42662204e-05, 6.51371229e-05, 6.51371229e-05, 6.51371229e-05,
          6.51371229e-05, 6.51371229e-05, 1.96874025e-05,
          -1.35525272e-20, -1.35525272e-20, 4.42662204e-05,
          6.51371229e-05, 6.51371229e-05, 6.51371229e-05,
          -1.35525272e-20, -1.35525272e-20, 3.64545349e-06,
          4.42662204e-05, 6.51371229e-05, 6.51371229e-05, 6.51371229e-05,
          6.51371229e-05, 6.51371229e-05, 1.96874025e-05,
          -1.35525272e-20, -1.35525272e-20, 4.42662204e-05,
          6.51371229e-05, 6.51371229e-05, 6.51371229e-05,
          -1.35525272e-20, -1.35525272e-20, 3.64545349e-06,
          4.42662204e-05, 6.51371229e-05, 6.51371229e-05, 6.51371229e-05,
          6.51371229e-05, 6.51371229e-05, 1.96874025e-05,
          -1.35525272e-20, -1.35525272e-20, 4.42662204e-05,
          6.51371229e-05, 6.51371229e-05, 6.51371229e-05,
          -1.35525272e-20, -1.35525272e-20, 3.64545349e-06,
          4.42662204e-05, 6.51371229e-05, 6.51371229e-05, 6.51371229e-05,
          6.51371229e-05, 6.51371229e-05, 1.96874025e-05,
          -1.35525272e-20, -1.35525272e-20, 4.42662204e-05,
          6.51371229e-05, 6.08425398e-05, 5.60707740e-05,
          -3.47171372e-05, -3.47171372e-05, -3.10716860e-05,
          9.54908319e-06, 3.04199857e-05, 3.04199857e-05, 3.04199857e-05,
          3.04199857e-05, 3.04199857e-05, -1.50297356e-05,
          -3.47171372e-05, -3.47171372e-05, 9.54908319e-06,
          3.04199857e-05, 1.62239921e-05, 0., -6.51371229e-05,
          -6.51371229e-05, -6.14916717e-05, -2.08709025e-05, 0., 0., 0.,
          0., 0., -4.54497203e-05, -6.51371229e-05, -6.51371229e-05,
          -2.08709025e-05, 0., 0., 0., -6.51371229e-05, -6.51371229e-05,
          -6.51371229e-05, -6.51371229e-05, -6.51371229e-05,
          -6.51371229e-05, -6.51371229e-05, -6.51371229e-05,
          -6.51371229e-05, -6.51371229e-05, -6.51371229e-05,
          -6.51371229e-05, -2.08709025e-05, 0., 0., 0., -6.51371229e-05,
          -6.51371229e-05, -6.51371229e-05, -6.51371229e-05,
          -6.51371229e-05, -6.51371229e-05, -6.51371229e-05,
          -6.51371229e-05, -6.51371229e-05, -6.51371229e-05,
          -6.51371229e-05, -6.51371229e-05, -2.08709025e-05, 0., 0., 0.,
          -6.51371229e-05, -6.51371229e-05, -6.51371229e-05,
          -6.51371229e-05, -6.51371229e-05, -6.51371229e-05,
          -6.51371229e-05, -6.51371229e-05, -6.51371229e-05,
          -6.51371229e-05, -6.51371229e-05, -6.51371229e-05,
          -2.08709025e-05, 0., 0., 0., -6.51371229e-05, -6.51371229e-05,
          -6.14916717e-05, -2.08709025e-05, -2.08709025e-05,
          -2.08709025e-05, -2.08709025e-05, -2.08709025e-05,
          -2.08709025e-05, -6.14916717e-05, -6.51371229e-05,
          -6.51371229e-05, -2.08709025e-05, 0., 0., 0., -6.51371229e-05,
          -6.51371229e-05, -6.14916717e-05, -2.08709025e-05, 0., 0., 0.,
          0., 0., -4.54497203e-05, -6.51371229e-05, -6.51371229e-05,
          -2.08709025e-05, 0., 0., 0., -6.51371229e-05, -6.51371229e-05,
          -6.14916717e-05, -2.08709025e-05, 0., 0., 0., 0., 0.,
          -4.54497203e-05, -6.51371229e-05, -6.51371229e-05,
          -2.08709025e-05, 0., 0., 0., -6.51371229e-05, -6.51371229e-05,
          -6.14916717e-05, -2.08709025e-05, 0., 0., 0., 0., 0.,
          -4.54497203e-05, -6.51371229e-05, -6.51371229e-05,
          -2.08709025e-05, 0., 0., 0., -6.51371229e-05, -6.51371229e-05,
          -6.14916717e-05, -2.08709025e-05, 0., 0., 0., 0., 0.,
          -4.54497203e-05, -6.51371229e-05, -6.51371229e-05,
          -2.08709025e-05, 0., 0., 0., -6.51371229e-05, -6.51371229e-05,
          -6.14916717e-05, -2.08709025e-05, 0., 0., 0., 0., 0.,
          -4.54497203e-05, -6.51371229e-05, -6.51371229e-05,
          -2.08709025e-05, 0., 0., 0., -6.51371229e-05, -6.51371229e-05,
          -6.14916717e-05, -2.08709025e-05, 0., 0., 0., 0., 0.,
          -4.54497203e-05, -6.51371229e-05, -6.51371229e-05,
          -2.08709025e-05, 0., 0., 0. ]
      - [ 6.67240647e-06, 1.69406589e-20, 7.47486265e-05, 7.47486265e-05,
          1.01334001e-04, 1.01334001e-04, 1.01334001e-04, 1.01334001e-04,
          1.01334001e-04, 1.01334001e-04, 1.01334001e-04, 1.01334001e-04,
          1.01334001e-04, 1.01334001e-04, 1.01334001e-04, 1.01334001e-04,
          1.69406589e-20, 1.69406589e-20, 7.47486265e-05, 7.47486265e-05,
          1.01334001e-04, 1.01334001e-04, 1.01334001e-04, 1.01334001e-04,
          1.01334001e-04, 1.01334001e-04, 1.01334001e-04, 1.01334001e-04,
          1.01334001e-04, 1.01334001e-04, 1.01334001e-04, 1.01334001e-04,
          1.69406589e-20, 1.69406589e-20, 7.47486265e-05, 7.47486265e-05,
          1.01334001e-04, 1.01334001e-04, 1.01334001e-04, 1.01334001e-04,
          1.01334001e-04, 1.01334001e-04, 1.01334001e-04, 1.01334001e-04,
          1.01334001e-04, 1.01334001e-04, 1.01334001e-04, 1.01334001e-04,
          1.69406589e-20, 1.69406589e-20, 7.47486265e-05, 7.47486265e-05,
          1.01334001e-04, 1.01334001e-04, 1.01334001e-04, 1.01334001e-04,
          1.01334001e-04, 1.01334001e-04, 1.01334001e-04, 1.01334001e-04,
          1.01334001e-04, 1.01334001e-04, 9.83880382e-05, 9.51147449e-05,
          -8.04667798e-05, -8.04667798e-05, -5.71814780e-06,
          -5.71814780e-06, 2.08672209e-05, 2.08672209e-05,
          2.08672209e-05, 2.08672209e-05, 2.08672209e-05, 2.08672209e-05,
          2.08672209e-05, 2.08672209e-05, 2.08672209e-05, 2.08672209e-05,
          1.11291847e-05, 0., -1.01334001e-04, -1.01334001e-04,
          -2.65853687e-05, -2.65853687e-05, 0., 0., 0., 0., 0., 0., 0.,
          0., 0., 0., 0., 0., -1.01334001e-04, -1.01334001e-04,
          -2.65853687e-05, -2.65853687e-05, 0., 0., 0., 0., 0., 0., 0.,
          0., 0., 0., 0., 0., -1.01334001e-04, -1.01334001e-04,
          -2.65853687e-05, -2.65853687e-05, 0., 0., 0., 0., 0., 0., 0.,
          0., 0., 0., 0., 0., -1.01334001e-04, -1.01334001e-04,
          -2.65853687e-05, -2.65853687e-05, 0., 0., 0., 0., 0., 0., 0.,
          0., 0., 0., 0., 0., -1.01334001e-04, -1.01334001e-04,
          -2.65853687e-05, -2.65853687e-05, 0., 0., 0., 0., 0., 0., 0.,
          0., 0., 0., 0., 0., -1.01334001e-04, -1.01334001e-04,
          -2.65853687e-05, -2.65853687e-05, 0., 0., 0., 0., 0., 0., 0.,
          0., 0., 0., 0., 0., -1.01334001e-04, -1.01334001e-04,
          -2.65853687e-05, -2.65853687e-05, 0., 0., 0., 0., 0., 0., 0.,
          0., 0., 0., 0., 0., -1.01334001e-04, -1.01334001e-04,
          -2.65853687e-05, -2.65853687e-05, 0., 0., 0., 0., 0., 0., 0.,
          0., 0., 0., 0., 0., -1.01334001e-04, -1.01334001e-04,
          -2.65853687e-05, -2.65853687e-05, 0., 0., 0., 0., 0., 0., 0.,
          0., 0., 0., 0., 0., -1.01334001e-04, -1.01334001e-04,
          -2.65853687e-05, -2.65853687e-05, 0., 0., 0., 0., 0., 0., 0.,
          0., 0., 0., 0., 0., -1.01334001e-04, -1.01334001e-04,
          -2.65853687e-05, -2.65853687e-05, 0., 0., 0., 0., 0., 0., 0.,
          0., 0., 0., 0., 0. ]
      - [ 1.01100093e-04, 1.01100093e-04, 1.01100093e-04, 1.01100093e-04,
          1.01100093e-04, 1.01100093e-04, 3.92041111e-05, 3.92041111e-05,
          3.92041111e-05, 7.60402108e-05, 6.18959821e-05, 6.18959821e-05,
          7.03517726e-05, 1.01100093e-04, 1.01100093e-04, 1.01100093e-04,
          1.01100093e-04, 1.01100093e-04, 1.01100093e-04, 1.01100093e-04,
          1.01100093e-04, 1.01100093e-04, 3.92041111e-05, 3.92041111e-05,
          3.92041111e-05, 6.18959821e-05, 6.18959821e-05, 6.18959821e-05,
          6.18959821e-05, 1.01100093e-04, 1.01100093e-04, 1.01100093e-04,
          1.01100093e-04, 1.01100093e-04, 1.01100093e-04, 1.01100093e-04,
          1.01100093e-04, 1.01100093e-04, 3.92041111e-05, 3.92041111e-05,
          3.92041111e-05, 6.18959821e-05, 6.18959821e-05, 6.18959821e-05,
          6.18959821e-05, 1.01100093e-04, 1.01100093e-04, 1.01100093e-04,
          1.01100093e-04, 1.01100093e-04, 1.01100093e-04, 1.01100093e-04,
          1.01100093e-04, 1.01100093e-04, 3.92041111e-05, 3.92041111e-05,
          3.92041111e-05, 6.18959821e-05, 6.18959821e-05, 6.18959821e-05,
          6.18959821e-05, 1.01100093e-04, 9.73050774e-05, 9.30883834e-05,
          2.68813928e-05, 2.68813928e-05, 2.68813928e-05, 2.68813928e-05,
          2.68813928e-05, 2.68813928e-05, -3.50145892e-05,
          -3.50145892e-05, -3.50145892e-05, -1.23227201e-05,
          -1.23227201e-05, -1.23227201e-05, -1.23227201e-05,
          2.68813928e-05, 1.43367433e-05, 0., 0., 0., 0., 0., 0., 0.,
          -6.18959821e-05, -6.18959821e-05, -6.18959821e-05,
          -3.92041111e-05, -3.92041111e-05, -3.92041111e-05,
          -3.92041111e-05, 0., 0., 0., 0., 0., 0., 0., 0., 0.,
          -6.18959821e-05, -6.18959821e-05, -6.18959821e-05,
          -3.92041111e-05, -3.92041111e-05, -3.92041111e-05,
          -3.92041111e-05, 0., 0., 0., 0., 0., 0., 0., 0., 0.,
          -6.18959821e-05, -6.18959821e-05, -6.18959821e-05,
          -3.92041111e-05, -3.92041111e-05, -3.92041111e-05,
          -3.92041111e-05, 0., 0., 0., 0., 0., 0., 0., 0., 0.,
          -6.18959821e-05, -6.18959821e-05, -6.18959821e-05,
          -3.92041111e-05, -3.92041111e-05, -3.92041111e-05,
          -3.92041111e-05, 0., 0., 0., 0., 0., 0., 0., 0., 0.,
          -6.18959821e-05, -6.18959821e-05, -6.18959821e-05,
          -3.92041111e-05, -3.92041111e-05, -3.92041111e-05,
          -3.75129566e-05, 0., 0., 0., 0., 0., 0., 0., 0., 0.,
          -6.18959821e-05, -6.18959821e-05, -6.78919023e-05,
          -3.92041111e-05, -3.92041111e-05, -3.92041111e-05,
          -2.10626022e-05, 0., 0., 0., -8.60953060e-06, -1.05513654e-05,
          -3.92041111e-05, -1.56816459e-05, -1.38367454e-06, 0.,
          -6.18959821e-05, -6.26646870e-05, -7.02734687e-05,
          -3.92041111e-05, -3.92041111e-05, -3.92041111e-05,
          -2.12163432e-05, 0., 0., 0., -6.32581578e-05, -9.91582565e-05,
          -6.83316321e-05, -3.92041111e-05, -3.92041111e-05,
          -3.92041111e-05, -1.01100093e-04, -1.01100093e-04,
          -7.02734687e-05, -3.92041111e-05, -3.92041111e-05,
          -3.92041111e-05, 0., 0., 0., 0., -5.04888776e-05,
          -1.01100093e-04, -1.01100093e-04, -8.94490877e-05,
          -8.94490877e-05, -9.52745904e-05, -1.01100093e-04,
          -1.01100093e-04, -4.50296175e-05, -3.92041111e-05,
          -3.92041111e-05, -1.58353869e-05, 0., 0., 0., 0.,
          -9.70917336e-06, -5.48337703e-05, -1.01100093e-04,
          -1.01100093e-04, -1.01100093e-04, -1.01100093e-04,
          -1.01100093e-04, -7.97399116e-05, -3.92041111e-05,
          -3.92041111e-05, -1.61428707e-05, 0., 0., 0., 0., 0., 0., 0.,
          -2.71856861e-05, -4.79408045e-05, -8.26511023e-05,
          -6.63897954e-05, -5.27969569e-05, -3.78204386e-05,
          -2.07551184e-05, 0., 0., 0., 0., 0., 0., 0. ]
      - [ 5.62748482e-06, 1.01643954e-20, 4.15518116e-06, 5.04557684e-05,
          7.47779486e-05, 7.47779486e-05, 7.47779486e-05, 6.96334391e-05,
          2.43221803e-05, 1.00150155e-05, 1.01643954e-20, 3.79902267e-05,
          5.04557684e-05, 6.17107435e-05, 7.47779486e-05, 7.47779486e-05,
          1.01643954e-20, 1.01643954e-20, 4.15518116e-06, 5.04557684e-05,
          7.47779486e-05, 7.47779486e-05, 7.47779486e-05, 2.43221803e-05,
          1.08734457e-05, 1.01643954e-20, 4.05624814e-05, 5.04557684e-05,
          5.52248239e-05, 7.47779486e-05, 7.47779486e-05, 7.47779486e-05,
          1.01643954e-20, 1.01643954e-20, 4.15518116e-06, 5.04557684e-05,
          7.47779486e-05, 7.47779486e-05, 5.28148521e-05, 1.17318759e-05,
          1.01643954e-20, 4.63005890e-05, 5.04557684e-05, 5.43663955e-05,
          7.47779486e-05, 7.47779486e-05, 7.47779486e-05, 7.47779486e-05,
          1.01643954e-20, 1.01643954e-20, 4.15518116e-06, 5.04557684e-05,
          7.47779486e-05, 4.98468653e-05, 1.25903052e-05, 1.01643954e-20,
          3.56158375e-06, 4.98621739e-05, 5.35079635e-05, 7.47779486e-05,
          7.47779486e-05, 7.47779486e-05, 6.96150237e-05, 6.38784404e-05,
          -3.82072285e-05, -3.82072285e-05, -3.40520492e-05,
          1.22485408e-05, 3.65707201e-05, -2.47584940e-05,
          -3.82072285e-05, -2.98968662e-05, 1.22485408e-05,
          1.44423057e-05, 3.65707201e-05, 3.65707201e-05, 3.65707201e-05,
          3.65707201e-05, 1.95043849e-05, 0., -7.47779486e-05,
          -7.47779486e-05, -7.06227729e-05, -2.43221803e-05,
          -5.37433480e-05, -7.47779486e-05, -7.47779486e-05,
          -2.43221803e-05, -2.29868456e-05, 0., 0., 0., 0., 0., 0., 0.,
          -7.47779486e-05, -7.47779486e-05, -7.18099618e-05,
          -7.18099618e-05, -7.47779486e-05, -7.47779486e-05,
          -5.97401522e-05, -2.38452758e-05, 0., 0., 0., 0., 0., 0., 0.,
          0., -7.47779486e-05, -7.47779486e-05, -7.47779486e-05,
          -7.47779486e-05, -7.47779486e-05, -7.47779486e-05,
          -7.47779486e-05, -6.16376346e-05, 0., 0., 0., 0., 0., 0., 0.,
          0., -7.47779486e-05, -7.47779486e-05, -7.47779486e-05,
          -7.47779486e-05, -7.47779486e-05, -7.47779486e-05,
          -7.47779486e-05, -7.35907597e-05, -2.17468914e-05, 0., 0., 0.,
          0., 0., 0., 0., -7.47779486e-05, -7.47779486e-05,
          -7.47779486e-05, -7.47779486e-05, -2.78837651e-05,
          -3.12972079e-05, -7.47779486e-05, -7.47779486e-05,
          -5.75636295e-05, -1.00150155e-05, 0., 0., 0., 0., 0., 0.,
          -7.47779486e-05, -7.47779486e-05, -7.26014259e-05,
          -2.63008387e-05, -2.19376534e-06, 0., -5.91465541e-05,
          -7.47779486e-05, -7.47779486e-05, -2.84773614e-05, 0., 0., 0.,
          0., 0., 0., -7.47779486e-05, -7.47779486e-05, -7.06227729e-05,
          -2.43221803e-05, 0., 0., -2.55824798e-05, -7.47779486e-05,
          -7.47779486e-05, -7.47779486e-05, -2.12699852e-05, 0., 0., 0.,
          0., 0., -7.47779486e-05, -7.47779486e-05, -7.06227729e-05,
          -2.43221803e-05, 0., 0., 0., -6.88419750e-05, -7.47779486e-05,
          -7.47779486e-05, -4.29215615e-05, -1.65009315e-05, 0., 0., 0.,
          0., -7.47779486e-05, -7.47779486e-05, -7.06227729e-05,
          -2.43221803e-05, 0., 0., 0., -8.72637031e-07, -7.47779486e-05,
          -7.47779486e-05, -7.47779486e-05, -2.43221803e-05,
          -7.34434479e-06, 0., 0., 0., -7.47779486e-05, -7.47779486e-05,
          -7.06227729e-05, -2.43221803e-05, 0., 0., 0., 0.,
          -1.68216247e-05, -7.47779486e-05, -7.47779486e-05,
          -4.52959503e-05, -2.43221803e-05, 0., 0., 0., -7.47779486e-05,
          -7.47779486e-05, -7.06227729e-05, -2.43221803e-05, 0., 0., 0.,
          0., -1.78079188e-06, -6.21906802e-05, -7.47779486e-05,
          -7.47779486e-05, -2.43221803e-05, -1.86946963e-05, 0., 0. ]
      - [ 1.87824173e-06, -5.08219768e-20, 1.65586443e-05,
          7.40781470e-05, 8.23359296e-05, 8.23359296e-05, 8.23359296e-05,
          8.23359296e-05, 8.23359296e-05, 8.23359296e-05, 8.23359296e-05,
          8.23359296e-05, 8.23359296e-05, 8.23359296e-05, 8.23359296e-05,
          8.23359296e-05, -5.08219768e-20, -5.08219768e-20,
          1.65586443e-05, 7.40781470e-05, 8.23359296e-05, 8.23359296e-05,
          8.23359296e-05, 8.23359296e-05, 8.23359296e-05, 8.23359296e-05,
          8.23359296e-05, 8.23359296e-05, 8.23359296e-05, 8.23359296e-05,
          8.23359296e-05, 8.23359296e-05, -5.08219768e-20,
          -5.08219768e-20, 1.65586443e-05, 7.40781470e-05,
          8.23359296e-05, 8.23359296e-05, 8.23359296e-05, 8.23359296e-05,
          8.23359296e-05, 8.23359296e-05, 8.23359296e-05, 8.23359296e-05,
          8.23359296e-05, 8.23359296e-05, 8.23359296e-05, 8.23359296e-05,
          -5.08219768e-20, -5.08219768e-20, 1.65586443e-05,
          7.40781470e-05, 8.23359296e-05, 8.23359296e-05, 8.23359296e-05,
          8.23359296e-05, 8.23359296e-05, 8.23359296e-05, 8.23359296e-05,
          8.23359296e-05, 8.23359296e-05, 8.23359296e-05, 7.96370005e-05,
          7.66381854e-05, -6.32185038e-05, -6.32185038e-05,
          -4.69503648e-05, 1.08596369e-05, 1.91174240e-05,
          1.91174240e-05, 1.91174240e-05, 1.91174240e-05, 1.91174240e-05,
          1.91174240e-05, 1.91174240e-05, 1.91174240e-05, 1.91174240e-05,
          1.91174240e-05, 1.01959595e-05, 0., -8.23359296e-05,
          -8.23359296e-05, -6.57772835e-05, -8.25778716e-06, 0., 0., 0.,
          0., 0., 0., 0., 0., 0., 0., 0., 0., -8.23359296e-05,
          -8.23359296e-05, -6.60677906e-05, -8.25778716e-06, 0., 0., 0.,
          0., 0., 0., 0., 0., 0., 0., 0., 0., -8.23359296e-05,
          -8.23359296e-05, -6.57772835e-05, -8.25778716e-06, 0., 0., 0.,
          0., 0., 0., 0., 0., 0., 0., 0., 0., -8.23359296e-05,
          -8.23359296e-05, -6.57772835e-05, -8.25778716e-06, 0., 0., 0.,
          0., 0., 0., 0., 0., 0., 0., 0., 0., -8.23359296e-05,
          -8.23359296e-05, -6.60677906e-05, -8.25778716e-06, 0., 0., 0.,
          0., 0., 0., 0., 0., 0., 0., 0., 0., -8.23359296e-05,
          -8.23359296e-05, -6.57772835e-05, -8.25778716e-06, 0., 0., 0.,
          0., 0., 0., 0., 0., 0., 0., 0., 0., -8.23359296e-05,
          -8.23359296e-05, -6.60677906e-05, -8.25778716e-06, 0., 0., 0.,
          0., 0., 0., 0., 0., 0., 0., 0., 0., -8.23359296e-05,
          -8.23359296e-05, -6.57772835e-05, -8.25778716e-06,
          -4.11270184e-06, -4.11270184e-06, -4.11270184e-06,
          -4.11270184e-06, -4.11270184e-06, -4.11270184e-06,
          -4.11270184e-06, 0., 0., 0., 0., 0., -8.23359296e-05,
          -8.23359296e-05, -6.57772835e-05, -8.25778716e-06,
          -8.25778716e-06, -8.25778716e-06, -8.25778716e-06,
          -8.25778716e-06, -8.25778716e-06, -8.25778716e-06,
          -8.25778716e-06, 0., 0., 0., 0., 0., -8.23359296e-05,
          -8.23359296e-05, -8.23359296e-05, -8.23359296e-05,
          -8.23359296e-05, -8.23359296e-05, -8.23359296e-05,
          -8.23359296e-05, -8.23359296e-05, -8.25778716e-06,
          -8.25778716e-06, 0., 0., 0., 0., 0., -8.23359296e-05,
          -8.23359296e-05, -8.23359296e-05, -8.23359296e-05,
          -8.23359296e-05, -8.23359296e-05, -8.23359296e-05,
          -8.23359296e-05, -8.23359296e-05, -8.25778716e-06,
          -8.25778716e-06, 0., 0., 0., 0., 0. ]
      - [ 6.39666587e-06, -3.38813179e-21, -3.38813179e-21,
          5.38619061e-05, 7.29519525e-05, 7.29519525e-05, 7.29519525e-05,
          7.29519525e-05, 7.29519525e-05, 7.29519525e-05, 5.35935833e-05,
          2.54867155e-05, 6.39666587e-06, -3.38813179e-21,
          4.74652406e-05, 5.38619061e-05, -3.38813179e-21,
          -3.38813179e-21, -3.38813179e-21, -3.38813179e-21,
          6.02585715e-05, 7.29519525e-05, 7.29519525e-05, 7.29519525e-05,
          7.29519525e-05, 7.14628477e-05, 2.54867155e-05, 1.90900500e-05,
          -3.38813179e-21, -3.38813179e-21, 4.74652406e-05,
          4.74652406e-05, -3.38813179e-21, -3.38813179e-21,
          -3.38813179e-21, -3.38813179e-21, 4.72791035e-05,
          6.65552870e-05, 7.29519525e-05, 7.29519525e-05, 7.29519525e-05,
          6.60648438e-05, 2.54867155e-05, -3.38813179e-21,
          -3.38813179e-21, -3.38813179e-21, 4.74652406e-05,
          4.74652406e-05, -3.38813179e-21, -3.38813179e-21,
          -3.38813179e-21, -3.38813179e-21, 4.05781284e-05,
          5.38619061e-05, 7.29519525e-05, 7.29519525e-05, 7.29519525e-05,
          3.18154125e-05, 1.27933317e-05, -3.38813179e-21,
          -3.38813179e-21, -3.38813179e-21, 4.02444275e-05,
          3.22213054e-05, -2.18045388e-05, -2.18045388e-05,
          4.81322377e-06, -2.18045388e-05, -7.84417352e-06,
          2.56607018e-05, 4.47507518e-05, 5.11474173e-05, 5.11474173e-05,
          -2.71448971e-06, -2.18045388e-05, -2.18045388e-05,
          -2.18045388e-05, -2.18045388e-05, 1.79190749e-06,
          -2.54867155e-05, -7.29519525e-05, -7.29519525e-05,
          -3.23738277e-05, -7.29519525e-05, -7.29519525e-05,
          -2.54867155e-05, -2.54867155e-05, 0., -1.35880882e-05,
          -6.65552870e-05, -7.29519525e-05, -6.62509774e-05,
          -7.29519525e-05, -7.29519525e-05, -2.54867155e-05,
          -2.54867155e-05, -7.29519525e-05, -7.29519525e-05,
          -2.54867155e-05, -7.29519525e-05, -7.29519525e-05,
          -3.90748028e-05, -2.54867155e-05, -1.90900500e-05,
          -3.57745193e-05, -7.29519525e-05, -5.95500060e-05,
          -6.62509774e-05, -7.29519525e-05, -7.29519525e-05,
          -2.54867155e-05, -2.54867155e-05, -7.29519525e-05,
          -7.29519525e-05, -2.54867155e-05, -6.84846382e-05,
          -6.65552870e-05, -7.29519525e-05, -2.54867155e-05,
          -2.54867155e-05, -7.29519525e-05, -7.23935445e-05,
          -2.54867155e-05, -5.98543156e-05, -6.01586253e-05,
          -7.29519525e-05, -2.54867155e-05, -2.54867155e-05,
          -7.29519525e-05, -7.29519525e-05, -2.54867155e-05,
          -2.54867155e-05, -4.74652406e-05, -7.29519525e-05,
          -2.54867155e-05, -4.39143951e-05, -7.29519525e-05,
          -6.62509774e-05, -2.54867155e-05, -4.71609310e-05,
          -6.01586253e-05, -7.29519525e-05, -2.54867155e-05,
          -2.54867155e-05, -7.29519525e-05, -7.29519525e-05,
          -2.54867155e-05, -2.54867155e-05, -4.07642656e-05,
          -6.01586253e-05, -4.59619150e-05, -4.59619150e-05,
          -7.29519525e-05, -3.68411456e-05, -1.90900500e-05,
          -4.07642656e-05, -6.01586253e-05, -7.29519525e-05,
          -2.54867155e-05, -2.54867155e-05, -7.29519525e-05,
          -7.29519525e-05, -2.54867155e-05, -2.54867155e-05,
          -1.91722338e-05, -4.74652406e-05, -5.38978929e-05,
          -7.29519525e-05, -7.29519525e-05, -2.54867155e-05, 0.,
          -4.07642656e-05, -6.01586253e-05, -7.29519525e-05,
          -2.54867155e-05, -2.54867155e-05, -7.29519525e-05,
          -7.29519525e-05, -2.54867155e-05, -2.54867155e-05, 0.,
          -4.74652406e-05, -5.38619061e-05, -7.29519525e-05,
          -5.93638688e-05, -1.26933837e-05, 0., -4.07642656e-05,
          -6.01586253e-05, -7.29519525e-05, -2.54867155e-05,
          -2.54867155e-05, -7.29519525e-05, -7.29519525e-05,
          -2.54867155e-05, -2.54867155e-05, 0., -3.38771533e-05,
          -4.74652406e-05, -4.74652406e-05, -2.86652830e-05, 0., 0.,
          -4.07642656e-05, -6.01586253e-05, -7.29519525e-05,
          -2.54867155e-05, -2.54867155e-05, -7.29519525e-05,
          -7.29519525e-05, -2.54867155e-05, -2.54867155e-05, 0.,
          -3.38771533e-05, -4.74652406e-05, -4.74652406e-05, 0., 0., 0.,
          -4.07642656e-05, -6.01586253e-05, -7.29519525e-05,
          -2.54867155e-05, -2.54867155e-05, -7.29519525e-05,
          -7.29519525e-05, -2.54867155e-05, -2.54867155e-05, 0., 0.,
          -1.04237388e-05, -5.95642223e-06, 0., 0., 0., -4.07642656e-05,
          -6.01586253e-05, -7.29519525e-05, -2.54867155e-05,
          -2.54867155e-05, -7.29519525e-05, -7.29519525e-05,
          -2.54867155e-05, -2.54867155e-05, 0., 0., 0., 0., 0., 0., 0.,
          -4.07642656e-05, -6.01586253e-05, -7.29519525e-05,
          -2.54867155e-05, -2.54867155e-05 ]
      - [ 9.78259141e-06, 9.78259141e-06, 1.22983456e-05, 5.73883881e-05,
          6.88362270e-05, 6.88362270e-05, 6.88362270e-05, 6.88362270e-05,
          6.88362270e-05, 2.35526659e-05, 7.33694378e-06, 2.03287907e-20,
          4.93474727e-05, 5.38566383e-05, 6.88362270e-05, 6.88362270e-05,
          2.03287907e-20, 2.03287907e-20, 2.03287907e-20, 2.03287907e-20,
          5.73722573e-05, 6.88362270e-05, 6.88362270e-05, 6.88362270e-05,
          6.88362270e-05, 2.35526659e-05, 2.03287907e-20, 2.03287907e-20,
          4.93474727e-05, 4.93474727e-05, 6.88362270e-05, 6.88362270e-05,
          2.03287907e-20, 2.03287907e-20, 2.03287907e-20, 2.03287907e-20,
          3.69622248e-05, 6.67727145e-05, 6.88362270e-05, 6.88362270e-05,
          6.88362270e-05, 2.35526659e-05, 2.03287907e-20, 2.03287907e-20,
          4.93474727e-05, 4.93474727e-05, 6.88362270e-05, 6.88362270e-05,
          2.03287907e-20, 2.03287907e-20, 2.03287907e-20, 2.03287907e-20,
          5.80558526e-06, 4.93474727e-05, 6.84541010e-05, 6.88362270e-05,
          6.88362270e-05, 2.35526659e-05, 2.03287907e-20, 2.03287907e-20,
          4.93474727e-05, 4.93474727e-05, 6.29158967e-05, 5.63377507e-05,
          -2.69005359e-05, -2.69005359e-05, 1.83830289e-05,
          -2.69005359e-05, -2.69005359e-05, 8.90057254e-06,
          2.24469386e-05, 4.19356948e-05, 4.19356948e-05,
          -3.34786887e-06, -2.69005359e-05, -2.69005359e-05,
          2.24469386e-05, 2.24469386e-05, 2.23657044e-05, 0.,
          -6.88362270e-05, -6.88362270e-05, -1.94887580e-05,
          -6.47723209e-05, -6.88362270e-05, -5.35481886e-05,
          -1.94887580e-05, -9.40045902e-06, 0., -4.52835629e-05,
          -6.88362270e-05, -6.88362270e-05, -1.94887580e-05,
          -1.94887580e-05, 0., 0., -6.88362270e-05, -6.88362270e-05,
          -1.94887580e-05, -1.94887580e-05, -6.88362270e-05,
          -6.88362270e-05, -4.83231634e-05, -1.91066247e-05, 0.,
          -4.52835629e-05, -6.88362270e-05, -6.88362270e-05,
          -1.94887580e-05, -1.94887580e-05, 0., 0., -6.88362270e-05,
          -6.88362270e-05, -2.37461863e-05, -1.94887580e-05,
          -4.49870058e-05, -6.88362270e-05, -6.88362270e-05,
          -1.94887580e-05, -1.84187866e-05, -4.52835629e-05,
          -6.88362270e-05, -6.88362270e-05, -1.94887580e-05,
          -1.94887580e-05, 0., 0., -6.88362270e-05, -6.88362270e-05,
          -6.47723209e-05, -1.94887580e-05, -3.48335107e-06,
          -6.77662611e-05, -6.88362270e-05, -5.29676327e-05,
          -1.94887580e-05, -5.33083476e-05, -6.88362270e-05,
          -6.88362270e-05, -1.94887580e-05, -1.94887580e-05, 0., 0.,
          -6.88362270e-05, -6.88362270e-05, -6.47723209e-05,
          -1.94887580e-05, 0., -2.88344054e-05, -6.88362270e-05,
          -6.53528768e-05, -1.94887580e-05, -6.47723209e-05,
          -6.88362270e-05, -6.88362270e-05, -1.94887580e-05,
          -1.94887580e-05, 0., 0., -6.88362270e-05, -6.88362270e-05,
          -6.47723209e-05, -1.94887580e-05, 0., 0., -5.87479335e-05,
          -6.88362270e-05, -4.34851754e-05, -6.47723209e-05,
          -6.88362270e-05, -6.88362270e-05, -1.94887580e-05,
          -1.94887580e-05, 0., 0., -6.88362270e-05, -6.88362270e-05,
          -6.47723209e-05, -1.94887580e-05, 0., 0., -2.05130673e-05,
          -6.88362270e-05, -6.61269587e-05, -6.61269587e-05,
          -6.88362270e-05, -6.88362270e-05, -1.94887580e-05,
          -1.94887580e-05, 0., 0., -6.88362270e-05, -6.88362270e-05,
          -6.47723209e-05, -1.94887580e-05, 0., 0., 0., -4.97296060e-05,
          -6.88362270e-05, -6.88362270e-05, -6.88362270e-05,
          -6.88362270e-05, -1.94887580e-05, -1.94887580e-05, 0., 0.,
          -6.88362270e-05, -6.88362270e-05, -6.47723209e-05,
          -1.94887580e-05, 0., 0., 0., -1.35463652e-05, -6.01236097e-05,
          -6.88362270e-05, -6.88362270e-05, -6.88362270e-05,
          -1.94887580e-05, -1.94887580e-05, 0., 0., -6.88362270e-05,
          -6.88362270e-05, -6.47723209e-05, -1.94887580e-05, 0., 0., 0.,
          0., -4.93474727e-05, -6.08114497e-05, -6.88362270e-05,
          -6.88362270e-05, -1.94887580e-05, -1.94887580e-05, 0., 0.,
          -6.88362270e-05, -6.88362270e-05, -6.47723209e-05,
          -1.94887580e-05, 0., 0., 0., 0., -4.06390973e-06,
          -5.11052822e-05, -6.88362270e-05, -6.88362270e-05,
          -1.94887580e-05, -1.94887580e-05, 0., 0. ]
      - [ 9.32315452e-05, 9.32315452e-05, 9.32315452e-05, 7.85606171e-05,
          6.38896818e-05, 1.45318045e-05, 1.33208209e-06, 1.35525272e-20,
          1.66270565e-05, 4.76805326e-05, 7.68832688e-05, 8.03951189e-05,
          9.32315452e-05, 9.32315452e-05, 9.32315452e-05, 9.32315452e-05,
          9.32315452e-05, 9.32315452e-05, 4.94632659e-05, 1.76803624e-05,
          1.35525272e-20, 1.35525272e-20, 1.35525272e-20, 1.35525272e-20,
          1.35525272e-20, 1.35525272e-20, 1.85831814e-05, 6.23514643e-05,
          6.58633144e-05, 9.32315452e-05, 9.32315452e-05, 9.32315452e-05,
          9.32315452e-05, 6.19335551e-05, 3.63295112e-06, 1.35525272e-20,
          1.07586839e-05, 2.15173677e-05, 4.18121599e-05, 2.15173677e-05,
          1.07586839e-05, 1.35525272e-20, 1.35525272e-20, 2.05393062e-05,
          6.23514643e-05, 6.59844154e-05, 9.32315452e-05, 9.32315452e-05,
          9.32315452e-05, 1.76803624e-05, 1.35525272e-20, 8.80255993e-06,
          6.23514643e-05, 6.23514643e-05, 6.23514643e-05, 6.23514643e-05,
          8.39069762e-05, 8.80255993e-06, 1.35525272e-20, 1.35525272e-20,
          5.35489053e-05, 6.23514643e-05, 5.94652338e-05, 7.97244793e-05,
          1.40217735e-05, -4.79117843e-05, -4.79117843e-05,
          -1.00118759e-05, 1.44396790e-05, 3.47842069e-05,
          4.47142702e-05, 4.53197645e-05, 4.53197645e-05, 2.08682086e-05,
          -2.75672592e-05, -4.79117843e-05, -1.68583101e-05,
          1.44396790e-05, -6.70954387e-06, -1.28364272e-05,
          -5.24131647e-05, -9.32315452e-05, -9.32315452e-05,
          -3.08800845e-05, -3.08800845e-05, 0., 0., 0., 0., 0.,
          -6.23514643e-05, -6.91329697e-05, -9.32315452e-05,
          -3.08800845e-05, -3.08800845e-05, -1.64693774e-05,
          -7.88208417e-05, -9.32315452e-05, -9.02973625e-05,
          -3.08800845e-05, -6.78150855e-06, 0., 0., 0., 0., 0.,
          -3.12979901e-05, -6.23514643e-05, -9.32315452e-05,
          -3.08800845e-05, -3.08800845e-05, -3.08800845e-05,
          -9.27471556e-05, -9.32315452e-05, -6.21780709e-05,
          -3.08800845e-05, -6.78150855e-06, 0., 0., 0., 0., 0.,
          -3.12979901e-05, -6.23514643e-05, -9.32315452e-05,
          -3.08800845e-05, -3.08800845e-05, -3.08800845e-05,
          -7.88208417e-05, -9.32315452e-05, -6.21780709e-05,
          -3.08800845e-05, -2.42196734e-07, 0., 0., 0., 0., 0.,
          -3.12979901e-05, -6.23514643e-05, -9.32315452e-05,
          -3.08800845e-05, -3.08800845e-05, -3.08800845e-05,
          -7.88208417e-05, -9.32315452e-05, -9.32315452e-05,
          -3.08800845e-05, -6.78150855e-06, 0., 0., 0., 0., 0.,
          -3.12979901e-05, -6.29569549e-05, -9.32315452e-05,
          -3.08800845e-05, -3.08800845e-05, -3.08800845e-05,
          -4.51032029e-05, -9.32315452e-05, -9.32315452e-05,
          -3.08800845e-05, -3.08800845e-05, -7.26590201e-07, 0., 0., 0.,
          0., -6.23514643e-05, -7.28870218e-05, -6.68238717e-05,
          -3.08800845e-05, -3.08800845e-05, -1.64693774e-05,
          -6.84643510e-06, -9.04462868e-05, -9.32315452e-05,
          -6.21780709e-05, -3.08800845e-05, -3.08800845e-05,
          -6.05491834e-07, 0., 0., -2.50570465e-05, -7.28870218e-05,
          -9.32315452e-05, -6.21780709e-05, -3.08800845e-05,
          -3.08800845e-05, -1.28364272e-05, 0., -7.55511865e-05,
          -9.32315452e-05, -9.32315452e-05, -5.33755156e-05,
          -3.08800845e-05, -3.08800845e-05, -3.08800845e-05,
          -3.08800845e-05, -9.32315452e-05, -9.32315452e-05,
          -9.32315452e-05, -3.08800845e-05, -3.08800845e-05,
          -2.73682308e-05, 0., 0., -1.07586839e-05, -7.56722875e-05,
          -9.32315452e-05, -9.32315452e-05, -7.17141811e-05,
          -7.17141811e-05, -7.17141811e-05, -9.32315452e-05,
          -9.32315452e-05, -9.32315452e-05, -4.16387666e-05,
          -3.08800845e-05, -2.72471334e-05, 0., 0., 0., 0.,
          -1.27148087e-05, -7.55511865e-05, -9.32315452e-05,
          -9.32315452e-05, -9.32315452e-05, -9.32315452e-05,
          -9.32315452e-05, -9.32315452e-05, -4.35948932e-05,
          -3.08800845e-05, -1.82858530e-05, 0., 0., 0., 0., 0., 0., 0.,
          -2.93418652e-05, -4.56901471e-05, -7.86997407e-05,
          -6.02219516e-05, -6.02219516e-05, -2.95480022e-05,
          -1.63482800e-05, 0., 0., 0., 0., 0. ]
      - [ 6.33051195e-06, -1.69406589e-20, -1.69406589e-20,
          -1.69406589e-20, -1.69406589e-20, -1.69406589e-20,
          1.39707854e-05, 1.39707854e-05, 5.35615072e-05, 8.63836030e-05,
          9.24668420e-05, 9.24668420e-05, 9.24668420e-05, 9.24668420e-05,
          9.24668420e-05, 9.24668420e-05, -1.69406589e-20,
          -1.69406589e-20, -1.69406589e-20, -1.69406589e-20,
          -1.69406589e-20, -1.69406589e-20, -1.69406589e-20,
          -1.69406589e-20, -1.69406589e-20, 4.03843023e-06,
          7.79053298e-05, 9.24668420e-05, 9.24668420e-05, 9.24668420e-05,
          9.24668420e-05, 9.24668420e-05, -1.69406589e-20,
          -1.69406589e-20, 2.78815151e-06, 6.46344197e-05,
          6.46344197e-05, 6.46344197e-05, 6.46344197e-05, 1.77427819e-06,
          -1.69406589e-20, -1.69406589e-20, 3.70063754e-05,
          9.24668420e-05, 9.24668420e-05, 9.24668420e-05, 9.24668420e-05,
          9.24668420e-05, -1.69406589e-20, -1.69406589e-20,
          3.04161972e-06, 6.46344197e-05, 6.46344197e-05, 6.46344197e-05,
          6.46344197e-05, 6.31136136e-05, 2.53468306e-06,
          -1.69406589e-20, -1.69406589e-20, 7.74045911e-05,
          9.24668420e-05, 9.24668420e-05, 8.61011431e-05, 7.90281338e-05,
          -4.73764449e-05, -4.73764449e-05, -4.45882943e-05,
          1.72579730e-05, 4.50903972e-05, 4.50903972e-05, 4.50903972e-05,
          4.15977011e-05, -4.45882943e-05, -4.73764449e-05,
          -4.73764449e-05, 1.72579730e-05, 4.50903972e-05,
          4.50903972e-05, 2.40482113e-05, 0., -9.24668420e-05,
          -9.24668420e-05, -8.96786951e-05, -2.78324242e-05, 0., 0., 0.,
          0., -8.96786951e-05, -9.24668420e-05, -9.24668420e-05,
          -2.78324242e-05, 0., 0., 0., 0., -9.24668420e-05,
          -9.24668420e-05, -8.94252225e-05, -2.78324242e-05, 0., 0., 0.,
          -4.28103112e-06, -9.04390981e-05, -9.24668420e-05,
          -9.24668420e-05, -2.78324242e-05, 0., 0., 0., 0.,
          -9.24668420e-05, -9.24668420e-05, -8.99321603e-05,
          -3.39156613e-05, -1.99448787e-05, -1.99448787e-05,
          -3.84480663e-05, -9.24668420e-05, -9.24668420e-05,
          -9.24668420e-05, -5.19119130e-05, -1.50622527e-05, 0., 0., 0.,
          0., -9.24668420e-05, -9.24668420e-05, -9.24668420e-05,
          -9.24668420e-05, -9.24668420e-05, -9.24668420e-05,
          -9.24668420e-05, -9.24668420e-05, -9.24668420e-05,
          -4.70960149e-05, -2.78324242e-05, -7.53112636e-06, 0., 0., 0.,
          0., -9.24668420e-05, -9.24668420e-05, -9.24668420e-05,
          -9.24668420e-05, -9.24668420e-05, -9.24668420e-05,
          -9.24668420e-05, -8.61301378e-05, -4.60821429e-05,
          -2.78324242e-05, -8.73174031e-06, 0., 0., 0., 0., 0.,
          -9.24668420e-05, -9.24668420e-05, -8.96786951e-05,
          -2.78324242e-05, -2.78324242e-05, -2.78324242e-05,
          -2.78324242e-05, -2.78324242e-05, -1.38616388e-05,
          -9.82320853e-06, 0., 0., 0., 0., 0., 0., -9.24668420e-05,
          -9.24668420e-05, -8.96786951e-05, -2.78324242e-05, 0., 0., 0.,
          0., 0., 0., 0., 0., 0., 0., 0., 0., -9.24668420e-05,
          -9.24668420e-05, -8.94252225e-05, -2.78324242e-05, 0., 0., 0.,
          0., 0., 0., 0., 0., 0., 0., 0., 0., -9.24668420e-05,
          -9.24668420e-05, -8.96786951e-05, -2.78324242e-05, 0., 0., 0.,
          0., 0., 0., 0., 0., 0., 0., 0., 0., -9.24668420e-05,
          -9.24668420e-05, -8.94252225e-05, -2.78324242e-05, 0., 0., 0.,
          0., 0., 0., 0., 0., 0., 0., 0., 0., -9.24668420e-05,
          -9.24668420e-05, -8.96786951e-05, -2.78324242e-05, 0., 0., 0.,
          0., 0., 0., 0., 0., 0., 0., 0., 0. ]
      - [ 9.95752707e-05, 9.95752707e-05, 9.95752707e-05, 5.72023782e-05,
          1.18688349e-05, -1.35525272e-20, -1.35525272e-20,
          1.93704655e-05, 7.36121947e-05, 8.94867626e-05, 9.95752707e-05,
